tree
version=v4
num_class=1
num_tree_per_iteration=1
label_index=0
max_feature_idx=19
objective=regression
feature_names=spend_sum_7d spend_mean_7d spend_std_7d spend_max_7d day_count_7d spend_sum_30d spend_mean_30d spend_std_30d spend_max_30d day_count_30d cat_spend_ratio_entertainment_30d cat_spend_ratio_gas_transport_30d cat_spend_ratio_grocery_pos_30d cat_spend_ratio_home_30d cat_spend_ratio_kids_pets_30d cat_spend_ratio_misc_net_30d cat_spend_ratio_other_30d cat_spend_ratio_shopping_net_30d cat_spend_ratio_shopping_pos_30d unique_category_count_30d
feature_infos=[1.2:31298.700000000001] [1.2:6781.6850000000004] [0:13213.543124603886] [1.2:29347.169999999998] [1:7] [1.3:43697.209999999999] [1.3:5408.29] [0:6074.15344852822] [1.3:29347.169999999998] [1:30] [0:1] [0:1] [0:1] [0:1] [0:1] [0:1] [0:1] [0:1] [0:1] [1:236]
tree_sizes=5423 5667 5708 5688 5702 5686 5695 5674 5684 5655 5731 5657 5717 5643 5716 5722 5759 5706 5705 5693 5737 5718 5716 5744 5741 5684 5760 5768 5743 5731 5715 5704 5753 5729 5730 5703 5708 5713 5699 5706 5714 5738 5752 5738 5720 5770 5705 5726 5741 5728 5733 5710 5723 5716 5720 5740 5719 5748 5743 5746 5742 5754 5747 5710 5762 5757 5716 5686 5720 5741 5676 5710 5680 5762 5794 5704 5690 5778 5718 5679 5700 5708 5718 5711 5744 5755 5751 5694 5649 5688 5725 5678 5705 5668 5631 5756 5741 5698 5711 5731 5710 5775 5720 5678 5744 5694 5658 5747 5644 5660 5709 5709 5603 5683 5671 5810 5728 5581 5725 5668 5556 5716 5614 5754 5621 5654 5641 5695 5706 5732 5618 5747 5642 5799 5745 5661 5750 5753 5794 5731 5706 5712 5654 5788 5661 5743 5585 5652 5584 5739 5716 5848 5688 5636 5800 5656 5566 5619 5598 5641 5646 5711 5816 5673 5742 5635 5609 5793 5706 5587 5582 5739 5634 5547 5707 5681 5724 5663 5877 5599 5558 5798 5703 5671 5723 5598 5873 5852 5757 5574 5777 5553 5593 5651 5816 5693 5888 5550 5732 5816 5655 5568 5639 5806 5574 5659 5594 5707 5645 5857 5574 5818 5772 5527 5648 5623 5788 5825 5588 5673 5500 5729 5696 5634 5823 5908 5857 5623 5868 5625 5858 5848 5767 5603 5649 5523 5887 5546 5671 5575 5573 5770 5841 5766 5637 5751 5577 5578 5805 5805 5535 5542 5745 5782 5624 5614 5785 5845 5602 5530 5816 5623 5538 5628 5818 5848 5670 5660 5572 5763 5610 5716 5628 5542 5669 5601 5818 5770 5550 5597 5666 5589 5630 5744 5618 5878 5841 5696 5610 5818 5613 5749 5870 5825 5729 5713 5622 5585 5794 5723 5801 5600 5744 5649 5857 5709 5821 5548 5562 5590 5839 5554 5834 5790 5695 5546 5796 5577 5783 5744 5746 5755 5578 5638 5582 5777 5546 5650 5533 5790 5587 5775 5736 5745 5774 5586 5824 5794 5610 5758 5718 5796 5615 5624 5747 5586 5711 5823 5674 5837 5586 5718 5572 5582 5838 5851 5617 5803 5632 5707 5681 5646 5694 5595 5838 5797 5619 5658 5587 5617 5581 5769 5678 5592 5708 5775 5695 5754 5641 5660 5600 5602 5575 5630 5609 5705 5640 5768 5587 5602 5601 5571 5604 5761 5755 5830 5682 5620 5769 5620 5617 5585 5738 5800 5605 5740 5692 5574 5747 5704 5509 5744 5608 5741 5755 5761 5624 5516 5553 5756 5528 5772 5608 5701 5619 5591 5707 5748 5720 5606 5505 5617 5602 5789 5705 5714 5832 5801 5584 5679 5762 5633 5811 5615 5697 5713 5587 5564 5615 5643 5549 5621 5594 5569 5787 5610 5587 5823 5711 5713 5778 5776 5712 5784 5547 5609 5663 5555 5530 5566 5639 5735 5880 5609 5807 5759 5756 5687 5687 5771 5834 5600 5588 5542 5663 5659 5704 5621 5640 5850 5642 5533 5733 5669 5665 5725 5787 5632 5732 5757 5853 5574 5698 5585 5704 5760 5568 5699 5709 5643 5847 5749 5564 5539 5655 5546 5809 5586 5580 5697 5584 5562 5565 5807 5603 5618 5608 5697 5717 5575 5616 5712 5670 5562 5611 5768 5825 5712 5820 5788 5693 5634 5756 5748 5589 5785 5631 5613 5713 5740 5614 5561 5700 5772 5613 5838 5791 5642 5717 5684 5755 5743 5611 5756 5741 5602 5705 5804 5625 5703 5549 5607 5638 5576 5655 5732 5720 5626 5601 5534 5642 5618 5599 5573 5573 5592 5650 5728 5564 5703 5782 5621 5665 5802 5735 5593 5558 5622 5573 5618

Tree=0
num_leaves=63
num_cat=0
split_feature=1 0 6 8 0 6 0 6 19 6 0 6 0 6 0 0 9 6 0 6 0 6 0 6 0 6 0 1 6 6 6 6 6 6 6 6 0 6 6 0 6 0 6 0 6 0 6 0 0 8 6 0 6 19 0 0 0 0 0 6 0 0
split_gain=4.19314e+06 1.57411e+06 1.30135e+06 908131 474431 747728 431554 290146 282824 249500 221873 189323 186594 705386 184436 144656 117324 111498 145353 111385 129653 98314.1 84512.7 83933.1 112171 76643.5 71196.9 54913.6 59037.7 50711.6 47178.7 39363.4 38952.4 38071.5 37395.3 36736.4 33640.2 31545.4 28772.6 28517.4 27273.1 26482.1 26469.1 182122 46450.7 30630.4 56690.8 24814.6 23942.6 21508 31719.7 21105.5 20969 20398.1 19270.5 18749.9 18392 17821.5 17628.6 17072.5 16272.8 16193.1
threshold=612.99142857142863 1680.245000000001 238.12318518518521 2616.2200000000007 2602.7950000000005 343.9401379310346 2275.7350000000006 182.2746518518519 124.50000000000001 430.8067241379311 6328.755000000001 414.31497931034488 1057.6750000000004 156.30362318840579 3229.1250000000005 1317.1850000000002 15.500000000000002 188.4600630252101 1376.2850000000003 283.49168965517248 2115.1000000000008 127.03365384615388 1939.6650000000002 414.31497931034488 3294.6500000000001 285.50258045977017 2755.0250000000005 1225.7483333333332 616.04866666666692 199.13206896551728 283.49168965517248 544.41472988505768 528.35983908045989 136.21655723905727 159.96916264090177 209.12982758620691 5122.8450000000012 209.12982758620691 312.92591379310352 3637.4500000000012 501.27353448275875 4794.755000000001 124.09740259740262 857.35000000000002 101.98065000000001 680.45000000000039 94.000329670329691 5122.8450000000012 1923.7350000000004 8122.4750000000013 481.07724137931035 1181.825 350.51724137931041 160.50000000000003 3637.4500000000012 2328.0050000000001 5586.045000000001 1527.4850000000004 3744.6000000000008 341.01442307692309 2892.0550000000007 2943.23
decision_type=2 2 2 2 2 2 2 2 2 2 2 2 2 2 2 2 2 2 2 2 2 2 2 2 2 2 2 2 2 2 2 2 2 2 2 2 2 2 2 2 2 2 2 2 2 2 2 2 2 2 2 2 2 2 2 2 2 2 2 2 2 2
left_child=1 12 6 9 19 14 7 34 10 41 11 36 42 15 25 21 -12 18 -15 20 -4 -14 35 24 -7 -6 29 28 -10 -8 -16 47 -13 -17 -3 -9 38 -24 -5 -25 -41 52 43 45 -45 -1 -47 -11 -36 50 -18 -23 61 -29 -32 -22 -33 -20 -26 -38 -27 -2
right_child=3 2 4 8 5 23 26 22 27 31 16 32 13 17 30 33 49 -19 57 -21 55 51 37 39 58 60 -28 53 -30 -31 54 56 -34 -35 48 -37 59 -39 -40 40 -42 -43 -44 44 -46 46 -48 -49 -50 -51 -52 -53 -54 -55 -56 -57 -58 -59 -60 -61 -62 -63
leaf_value=97.050930347932777 96.3873067466984 95.853072383694595 96.975099213609951 95.24710881935637 96.239750934731561 96.894966694172822 95.674820056385457 96.597054724927759 95.978289884081903 96.546813039093095 96.546934860283699 96.042737532671538 96.408727253296945 97.002794525339922 95.646833776050258 96.090263938664648 94.668820018029791 97.044620797647397 96.76610649967192 97.030721526724776 96.738313436041565 96.881990139711561 96.293582316998368 97.02666355429885 96.588921756079316 96.694003044652732 95.536090446287048 95.096654120878497 96.827340846002812 96.159627239453698 96.240804433391034 96.874911050141861 96.871998498092452 96.437979062446914 96.334390410564254 96.832005831891308 94.784422144277684 96.55951301494035 95.779269710972343 96.709712671398719 97.004131930780773 95.494828120234999 97.057471655621995 96.411618473792998 96.794827285441869 96.670863903763006 97.009812776903757 96.099805154396478 95.986995665822619 94.335934503790867 95.160020275539523 96.696869858066151 96.197711497639759 96.107031677421759 95.918960738858402 96.544219711616975 96.534537665085821 96.588343660739056 96.317958008210724 95.269375407892895 96.487683940429591 95.620313083241257
leaf_weight=54345 82 1100 8191 508 2254 4755 725 2815 436 1309 97 385 2119 11154 775 1178 982 50118 3573 25720 2831 3588 1751 7400 1520 2238 954 133 386 2107 1135 1312 224 2373 1397 4068 306 3071 508 1684 1476 412 84269 1029 3416 1513 6681 407 769 255 494 2697 507 80 788 2220 569 2329 992 446 1668 428
leaf_count=54345 82 1100 8191 508 2254 4755 725 2815 436 1309 97 385 2119 11154 775 1178 982 50118 3573 25720 2831 3588 1751 7400 1520 2238 954 133 386 2107 1135 1312 224 2373 1397 4068 306 3071 508 1684 1476 412 84269 1029 3416 1513 6681 407 769 255 494 2697 507 80 788 2220 569 2329 992 446 1668 428
internal_value=96.9062 96.9386 96.7539 95.9117 96.8588 96.6964 96.3866 96.5072 95.4512 96.3919 95.2689 95.5874 97.0063 96.9441 96.3209 96.5902 94.8548 97.007 96.8966 96.9701 96.8522 96.7033 96.6235 96.883 96.7522 96.4719 95.9097 96.1916 96.377 96.0355 95.9762 96.614 96.3478 96.3226 96.0905 96.7359 95.3256 96.4629 95.5132 96.973 96.8472 95.833 97.0388 97.0154 96.7061 97.0373 96.9472 96.4408 96.2111 94.76 94.8332 96.8026 95.97 95.4761 96.1089 96.653 96.7719 96.696 96.4819 95.072 96.6059 95.7436
internal_weight=325052 314786 84404 10266 65647 26685 18757 14971 5240 5026 4205 2377 230382 79129 8858 11955 1828 67174 17056 38962 13242 8404 11705 17827 7267 6160 3786 1035 822 2832 2698 3597 609 3551 3266 6883 1768 4822 1016 10560 3160 1429 151253 66984 4445 62539 8194 1716 2166 1731 1476 6285 1017 213 1923 5051 1881 5902 2512 752 3906 510
internal_count=325052 314786 84404 10266 65647 26685 18757 14971 5240 5026 4205 2377 230382 79129 8858 11955 1828 67174 17056 38962 13242 8404 11705 17827 7267 6160 3786 1035 822 2832 2698 3597 609 3551 3266 6883 1768 4822 1016 10560 3160 1429 151253 66984 4445 62539 8194 1716 2166 1731 1476 6285 1017 213 1923 5051 1881 5902 2512 752 3906 510
is_linear=0
shrinkage=1


Tree=1
num_leaves=63
num_cat=0
split_feature=2 3 2 6 0 0 6 0 6 6 6 9 0 0 8 0 0 0 6 0 6 6 0 6 0 6 0 6 0 6 0 0 6 6 6 6 0 6 6 0 6 8 6 0 6 0 6 0 6 6 0 0 0 0 9 0 0 6 0 6 6 6
split_gain=5.11714e+06 1.3586e+06 649873 507862 348078 248453 343994 245074 486335 177433 172869 129703 119725 113510 100616 156863 95826 90633.7 88819.9 87261.9 78488.9 76329.6 76326.9 73177.3 68990 66219 100423 56659.1 68097.6 55677.2 55099 48550.2 48615.3 39759.7 35761.1 35234.2 241381 83259.9 32747.4 32728.9 31710.8 31662.8 60576.7 27332.9 27308.1 25186.4 24225.9 23534.8 72960.9 23274.6 37129.4 23122.8 22676.6 21564.5 20584.5 19335 19205.7 58489 19161.1 18767.7 18679.9 18618.6
threshold=661.36566438765374 719.97500000000014 1211.8739232899973 252.42550000000003 2136.3400000000001 2844.2200000000003 360.94660968660975 1217.1350000000004 175.26965517241382 380.947 180.30069581280793 16.500000000000004 6328.755000000001 1539.5700000000002 745.33000000000015 1749.5550000000005 1481.6950000000002 3744.6000000000008 144.33946428571429 4132.3750000000009 481.07724137931035 409.05866666666674 1793.865 231.66034523809523 3447.5500000000006 315.52751322751328 2301.5500000000006 201.25296470588242 2640.3350000000005 283.49168965517248 2844.2200000000003 4304.9300000000012 513.45439583333348 300.97200000000004 425.06833333333338 140.75795138888887 901.67500000000007 113.61022435897438 139.75445652173914 1041.7050000000002 213.62329670329672 8122.4750000000013 481.07724137931035 2224.9300000000007 158.14587500000002 3369.2400000000002 150.80806547619051 732.19500000000005 100.85976315789476 198.014375 1460.3900000000003 2095.4250000000006 4522.1750000000002 4522.1750000000002 10.500000000000002 7700.0350000000008 1906.2050000000006 271.6184540229886 5122.8450000000012 126.08500714285717 303.20639285714293 212.4943903940887
decision_type=2 2 2 2 2 2 2 2 2 2 2 2 2 2 2 2 2 2 2 2 2 2 2 2 2 2 2 2 2 2 2 2 2 2 2 2 2 2 2 2 2 2 2 2 2 2 2 2 2 2 2 2 2 2 2 2 2 2 2 2 2 2
left_child=1 7 9 4 10 25 24 35 16 19 13 54 21 38 15 49 18 34 59 29 53 58 -12 51 33 26 -5 -6 -29 30 61 -11 -33 -7 -8 36 47 -38 -3 -39 -24 42 -14 -25 -15 -31 -18 -1 -49 50 -10 -17 -22 -19 -4 -44 -16 -58 -13 -9 -21 -2
right_child=2 3 11 5 27 6 17 8 14 31 22 12 41 44 56 23 46 20 -20 60 52 -23 40 43 -26 -27 -28 28 -30 45 -32 32 -34 -35 -36 -37 37 39 -40 -41 -42 -43 55 -45 -46 -47 -48 48 -50 -51 -52 -53 -54 -55 -56 -57 57 -59 -60 -61 -62 -63
leaf_value=0.13656515682161913 -0.95504151608960841 -0.46584511685658403 0.070568996271554468 0.073115172484499877 -1.0613766755441296 -0.67833339478895127 -0.10247395750458921 -0.74007020478464725 0.091129863553831333 -0.088150696692970071 0.027459319239322457 -1.3726500244535638 -2.1295907398251779 -0.92498987339852956 0.12789711306853804 -0.30456160746377076 -0.81681219702030727 -0.37111620702828058 -0.11091268665720899 -1.8306919359606366 0.026548535216055311 -0.74720863564374551 -0.4422957374538487 0.016156064898852886 -0.86266375653065031 0.11553637288101454 -0.25648656012940063 -0.5299604288593831 -0.98000460540254919 -0.31269809142079041 -1.2683853140492882 -0.88155849710640499 -0.30757328658836586 -0.33280404349971787 0.10597140225160454 0.14289783215838833 -0.42759120415795987 0.025692664064430128 -0.13073236181523412 -0.19395447793886816 -0.15636015957270749 -2.4358776684006749 -1.0817214736795944 -0.2570603571735493 -0.58747432509592534 -0.78221318633089076 -0.47388160111664218 -0.22861396270484691 0.11527278189447206 0.11233269971210746 -0.16031236792891412 -0.6133491098804057 -0.21205032644734545 -0.73506143692641235 -0.86276739415882531 -1.6742350565667998 -0.18528222305479905 0.10095217129705625 -1.7570362294657849 -0.40228490148741625 -1.2942667709016369 -0.50940920689849045
leaf_weight=68680 494 1244 94 5730 1052 1249 3437 574 3635 716 4442 676 957 1021 31116 2759 687 1970 5525 215 2070 375 1642 3039 1370 12254 3873 3109 1152 483 1069 726 750 2497 5127 85161 2045 4111 1761 2887 2368 287 184 1310 1451 699 2057 1849 9302 10525 2463 777 1919 513 159 547 2110 11577 623 1450 662 446
leaf_count=68680 494 1244 94 5730 1052 1249 3437 574 3635 716 4442 676 957 1021 31116 2759 687 1970 5525 215 2070 375 1642 3039 1370 12254 3873 3109 1152 483 1069 726 750 2497 5127 85161 2045 4111 1761 2887 2368 287 184 1310 1451 699 2057 1849 9302 10525 2463 777 1919 513 159 547 2110 11577 623 1450 662 446
internal_value=4.23938e-11 0.0356383 -1.10433 -0.175704 -0.388436 -0.0782637 -0.2049 0.0866753 0.0140043 -0.788642 -0.257097 -1.61078 -1.68668 -0.475912 0.0616298 -0.0198221 -0.306697 -0.0844003 -0.214718 -0.984045 -0.225611 -1.3756 -0.115302 -0.203489 -0.55905 0.0384939 -0.059817 -0.732765 -0.651634 -0.862642 -1.02284 -0.426007 -0.589899 -0.448011 0.0223158 0.119915 0.0978926 -0.146937 -0.269461 -0.064922 -0.273444 -1.95036 -1.86781 -0.0661418 -0.726877 -0.590355 -0.559739 0.125626 0.0582513 0.0672989 -0.0104284 -0.372415 -0.0882349 -0.446309 -0.515994 -1.52509 0.106185 0.056826 -1.557 -0.49808 -1.42577 -0.743603
internal_weight=325052 314890 10162 61251 19242 42009 20152 253639 79604 6260 13929 3902 3649 5477 69311 24508 10293 15036 7549 4068 6472 1674 8452 7885 5116 21857 9603 5313 4261 3191 2009 2192 1476 3746 8564 174035 88874 9043 3005 6998 4010 1975 1688 4349 2472 1182 2744 79831 11151 16623 6098 3536 3989 2483 253 731 44803 13687 1299 2024 877 940
internal_count=325052 314890 10162 61251 19242 42009 20152 253639 79604 6260 13929 3902 3649 5477 69311 24508 10293 15036 7549 4068 6472 1674 8452 7885 5116 21857 9603 5313 4261 3191 2009 2192 1476 3746 8564 174035 88874 9043 3005 6998 4010 1975 1688 4349 2472 1182 2744 79831 11151 16623 6098 3536 3989 2483 253 731 44803 13687 1299 2024 877 940
is_linear=0
shrinkage=0.05


Tree=2
num_leaves=63
num_cat=0
split_feature=3 3 5 0 0 5 3 5 0 5 5 9 0 0 0 0 5 5 5 0 0 0 5 9 0 0 9 0 5 0 19 9 5 5 5 9 9 5 9 5 5 9 5 0 5 0 5 0 5 0 5 0 0 0 5 5 5 5 0 5 0 9
split_gain=4.56806e+06 1.45798e+06 422054 296464 295603 415658 291462 197186 185557 157735 131547 114194 111327 107210 101557 99770.8 210672 79290.5 57276.1 54586 52894.9 51297.3 47527.9 54679.3 46136.3 45624.3 44490.2 42977.8 186347 42762.7 42673.5 38636.3 39664.8 36967.9 36871.5 35125.5 35020.5 34816.5 36747.3 34692.8 32497.8 31996.4 45094.3 40913.3 30208.9 29885.1 28480.2 41332.3 25804.6 43639.9 25576.5 25913.5 25271.9 22183.4 26070.8 21267.3 21053.1 20504.1 30524.1 19832.8 23992.3 17988.8
threshold=2176.7650000000008 807.08000000000004 9095.970000000003 2533.2950000000005 1289.8350000000005 5533.4050000000016 3785.2350000000006 6135.7650000000003 3294.6500000000001 12298.580000000002 12676.320000000002 14.500000000000002 1888.9649999999999 1602.135 5122.8450000000012 1872.365 7605.630000000001 4363.3300000000008 7663.3100000000013 3105.7000000000003 6328.755000000001 2074.985000000001 9610.7750000000033 15.500000000000002 4304.9300000000012 3984.630000000001 20.500000000000004 857.35000000000002 3421.2100000000005 2301.5500000000006 110.50000000000001 16.500000000000004 4700.0750000000007 16241.970000000003 12104.100000000002 19.500000000000004 15.500000000000002 4766.4800000000005 15.500000000000002 4398.7350000000015 7438.6150000000016 19.500000000000004 2630.6250000000005 1033.1350000000004 3486.3550000000009 1888.9649999999999 10925.755000000003 2715.8000000000006 8930.6800000000021 2355.4250000000006 6296.3350000000019 3048.8250000000003 1471.3150000000003 5122.8450000000012 17737.115000000002 6578.8950000000013 14154.675000000001 6496.1950000000006 1602.135 4153.3600000000006 1089.6100000000004 22.500000000000004
decision_type=2 2 2 2 2 2 2 2 2 2 2 2 2 2 2 2 2 2 2 2 2 2 2 2 2 2 2 2 2 2 2 2 2 2 2 2 2 2 2 2 2 2 2 2 2 2 2 2 2 2 2 2 2 2 2 2 2 2 2 2 2 2
left_child=1 4 3 7 27 13 10 12 46 25 14 -8 37 17 22 57 29 35 36 -20 34 -9 23 -2 56 -10 -15 -1 41 55 61 -14 -33 -26 -13 -6 -5 38 -3 -28 -23 -29 -43 -44 -37 -41 47 -4 49 -18 -38 -52 -40 -12 -55 -17 -11 58 -7 60 -30 -22
right_child=6 2 8 18 5 15 11 21 9 24 53 20 31 26 -16 16 48 -19 19 -21 30 40 -24 -25 33 -27 39 28 59 -31 -32 32 -34 -35 -36 44 50 -39 52 45 -42 42 43 -45 -46 -47 -48 -49 -50 -51 51 -53 -54 54 -56 -57 -58 -59 -60 -61 -62 -63
leaf_value=0.12857519769800815 -0.19543405075243059 0.011863522105532022 0.086889168691384328 -0.12694047694377478 -0.019326015859639358 0.11261401467334364 -0.15214448329515573 0.048867961310860242 -0.38829360995946849 -0.12675194573299914 -0.19151664469501872 -1.5435387332140489 -0.088587708143106764 -0.037066919615971965 -1.5663104112335244 -0.30579081072403341 0.057789771226976538 -0.031709897791766022 -0.35294973700641691 -0.78085747904056946 -1.5899994661965346 -0.33523293355117717 -0.6618551465277952 -1.1735753118554912 -0.42601448716448626 -0.78991296038612946 -0.70571210643946847 0.025116714351651522 0.11285505432542485 -0.50952779244418023 -1.4571924008868784 -0.92961942087299954 -0.56331712221396857 -0.08875443861709495 -0.67902382801234795 -0.58916604293572217 -1.0496813081130829 -0.10069033879336312 -0.25967635177466425 -0.29666408308812486 -0.070221600924736907 -0.36157983683060718 0.011113376371144441 -0.23399434411249201 -0.2728791349596198 -0.61320309727586542 0.11434737156498863 -0.18741557574071618 0.10048262838123384 -0.25607114530794933 -0.63146744798682009 -1.0199876932120973 -0.54490212290246498 -0.95734481280618677 -0.347379196017781 -0.10856502349446021 0.082666853924416084 0.13431717230256254 -0.06516837798487092 0.13417412939562104 -0.049327545227630692 -2.1118534032558252
leaf_weight=117997 154 556 3120 181 1006 7132 123 3828 2581 2040 381 654 313 761 966 2403 4209 7830 2075 1163 197 2242 856 1978 1519 974 1031 4089 6530 1326 449 1033 2597 1747 152 993 1006 1894 1313 2857 2390 1877 4294 2821 3149 1009 7751 2453 14659 1503 1495 602 1901 366 336 3170 2915 26270 3650 43660 3504 1021
leaf_count=117997 154 556 3120 181 1006 7132 123 3828 2581 2040 381 654 313 761 966 2403 4209 7830 2075 1163 197 2242 856 1978 1519 974 1031 4089 6530 1326 449 1033 2597 1747 152 993 1006 1894 1313 2857 2390 1877 4294 2821 3149 1009 7751 2453 14659 1503 1495 602 1901 366 336 3170 2915 26270 3650 43660 3504 1021
internal_value=-1.27904e-09 0.0290664 -0.219675 -0.366903 0.0752312 -0.00317763 -1.20873 -0.262591 -0.0754447 -0.220052 -0.986918 -1.6391 -0.4176 -0.211105 -1.12065 0.0570652 -0.0155212 -0.131921 -0.655863 -0.506642 -1.71306 -0.0865668 -0.976565 -1.10292 -0.0997166 -0.498329 -0.392734 0.110435 0.0783794 -0.254327 -1.87385 -0.621598 -0.667557 -0.245612 -1.3805 -0.28434 -0.802994 -0.275587 -0.363453 -0.448005 -0.198493 -0.0908463 -0.143579 -0.0860685 -0.348706 -0.379279 0.0523619 -0.0338482 0.0653545 -0.0247965 -0.842429 -0.743003 -0.42838 -0.498685 -0.665395 -0.193606 -0.00355199 0.110488 0.0524298 0.119606 0.0562188 -2.02745
internal_weight=325052 317419 49689 24589 267730 82958 7633 18067 25100 11776 5037 2596 9607 18636 3954 64322 27270 12978 6522 3238 2473 8460 2988 2132 8221 3555 5658 184772 66775 6899 1667 3943 3630 3266 806 5148 3284 5664 3770 4897 4632 13081 8992 7115 4142 3866 13324 5573 20371 5712 3103 2097 3214 1083 702 5573 4955 37052 10782 53694 10034 1218
internal_count=325052 317419 49689 24589 267730 82958 7633 18067 25100 11776 5037 2596 9607 18636 3954 64322 27270 12978 6522 3238 2473 8460 2988 2132 8221 3555 5658 184772 66775 6899 1667 3943 3630 3266 806 5148 3284 5664 3770 4897 4632 13081 8992 7115 4142 3866 13324 5573 20371 5712 3103 2097 3214 1083 702 5573 4955 37052 10782 53694 10034 1218
is_linear=0
shrinkage=0.05


Tree=3
num_leaves=63
num_cat=0
split_feature=2 3 2 6 1 1 6 6 1 6 6 9 2 1 6 1 3 1 1 6 6 6 1 1 6 1 6 1 9 1 6 1 1 6 6 9 1 6 6 6 9 6 6 1 6 9 1 7 1 9 9 6 9 6 1 1 6 9 1 6 1 6
split_gain=4.17364e+06 1.10947e+06 531260 425431 284513 228070 256071 148440 135034 243810 133657 107675 75516.6 68183.9 65846 102849 65317.8 63757.4 55489.8 62850.1 53859.9 50111.8 48988.2 44300.9 42690.3 41803.5 89777 38918.7 38492.1 33237 32004 31550.5 30998 46769.6 29762.4 28838.8 25012.9 24771.9 24526.7 24000.5 21837.9 21631.7 20744.8 92069 18988 20880 18922 18899 17438.5 17278.1 16429.4 18509.4 15778.9 15679.1 17738.8 15353.6 15017.8 14752.7 13504.3 13497 13468.2 14105.6
threshold=661.36566438765374 652.75500000000011 1211.8739232899973 252.42550000000003 299.64214285714291 429.73142857142864 376.86483333333337 403.8199444444445 179.45071428571433 189.46980000000005 179.25351851851855 16.500000000000004 1887.4818545290193 227.83857142857147 315.52751322751328 338.19880952380959 2176.7650000000008 553.69964285714298 369.21928571428577 206.85089285714287 501.27353448275875 148.02867521367523 511.23785714285719 232.60514285714288 464.02947701149429 259.22714285714284 255.68803571428575 253.17428571428579 23.500000000000004 673.76071428571436 312.92591379310352 990.40988095238083 673.76071428571436 296.35579166666673 528.35983908045989 23.500000000000004 850.52457142857145 357.34487400530509 442.6563793103449 137.95465659340661 23.500000000000004 212.4943903940887 137.1226666666667 137.04374999999996 110.47687111801244 20.500000000000004 297.02928571428578 1570.7803542158065 673.76071428571436 10.500000000000002 23.500000000000004 150.80806547619051 20.500000000000004 269.70645238095238 525.12642857142862 383.20547619047619 152.60790588235298 23.500000000000004 259.22714285714284 481.07724137931035 673.76071428571436 658.44044047619059
decision_type=2 2 2 2 2 2 2 2 2 2 2 2 2 2 2 2 2 2 2 2 2 2 2 2 2 2 2 2 2 2 2 2 2 2 2 2 2 2 2 2 2 2 2 2 2 2 2 2 2 2 2 2 2 2 2 2 2 2 2 2 2 2
left_child=1 8 7 4 10 14 22 16 42 13 23 49 24 21 15 -5 53 38 19 52 48 35 30 39 36 -11 46 -12 -15 -9 -7 -26 33 -18 -31 -10 37 -13 -8 -3 -20 -29 43 -1 45 -45 -27 59 -19 -4 -25 -52 -6 -2 -55 -17 -30 -38 -58 -14 -22 -62
right_child=2 3 11 5 18 6 17 29 9 25 27 12 47 28 -16 55 32 20 40 -21 60 -23 -24 50 31 26 -28 41 56 34 -32 -33 -34 -35 -36 -37 57 -39 -40 -41 -42 -43 -44 44 -46 -47 -48 -49 -50 -51 51 -53 -54 54 -56 -57 58 -59 -60 -61 61 -63
leaf_value=0.11456590049950509 -0.78594478789855915 -0.40349937960577098 0.079646086898889953 0.067382966988312712 -0.32825964989313666 -0.55964352617612145 -0.077187564765831732 -0.064127191216964405 -0.063208385653462748 0.11472654155971269 0.051630921215321417 -1.461878630664291 -1.8986353033421464 -0.066770607890607875 0.098935110156784245 -0.1531149009479276 -1.1786832724018999 -0.307641534910154 -0.39871657149290995 -0.31829092246536073 0.033723587626875329 0.00049808538740758442 -0.70760533631867117 -0.32990610385160662 -0.48055652958287598 -0.073340165748510461 0.096007838768544268 -0.27431642754341662 -0.57673795714370935 -0.76738135405615271 -0.2663456492006071 -1.2586302351643019 -1.3574962107050064 -0.66870887458502892 -0.27168999600781862 -0.29270759265925456 -1.3206303751674193 -0.89435117250746665 0.10319933220797023 -0.1170873087882975 -0.77032960115197813 -0.063390083563089658 0.12883955359526242 -0.010002488176683999 0.0064316822019071258 -0.246708149337699 -0.26165484650498227 -2.2014451123323306 -0.65064555723014528 -0.77545154255891002 -0.80844004746141163 -0.47560925584764835 -0.68217600390313404 -0.29614483859234803 -0.7476024614431751 -0.32884472034393547 -0.23197467491559487 -1.7827259003763372 -0.45221627318126445 -1.5207492234042057 -0.28807496084347523 0.01937460768799722
leaf_weight=69750 1069 1162 94 7511 366 1508 3317 683 2591 38653 4467 656 547 1657 17117 3201 974 2036 476 4028 1738 10989 1590 1035 202 4084 13779 2087 642 561 2427 367 602 835 658 2902 232 272 4363 1974 2333 2911 79316 1828 7839 1900 1981 281 453 159 597 1391 2257 480 398 2032 1951 676 1082 416 958 611
leaf_count=69750 1069 1162 94 7511 366 1508 3317 683 2591 38653 4467 656 547 1657 17117 3201 974 2036 476 4028 1738 10989 1590 1035 202 4084 13779 2087 642 561 2427 367 602 835 658 2902 232 272 4363 1974 2333 2911 79316 1828 7839 1900 1981 281 453 159 597 1391 2257 480 398 2032 1951 676 1082 416 958 611
internal_value=-1.14297e-09 0.0321856 -0.997335 -0.137229 -0.304613 -0.0512996 -0.186719 -0.711911 0.084179 0.0312415 -0.173582 -1.45524 -1.5244 -0.11142 0.03487 -0.0511786 -0.872761 -0.0691896 -0.521021 -0.442323 -0.19438 -0.0611417 -0.473386 -0.354873 -1.36081 0.0844412 0.0254501 -0.0556145 -0.266839 -0.343361 -0.378745 -0.982407 -1.04671 -0.943289 -0.499814 -0.184455 -1.47809 -1.29553 0.02529 -0.223213 -0.707358 -0.151466 0.110646 0.0929001 -0.0377464 -0.130641 -0.134849 -1.84067 -0.370069 -0.457747 -0.491454 -0.575559 -0.632792 -0.657355 -0.500792 -0.221352 -0.357047 -1.66466 -0.310544 -1.73539 -0.0621489 -0.168348
internal_weight=325052 314890 10162 73946 25084 48862 19001 6260 240944 80311 15624 3902 3649 21814 29861 12744 4358 13476 9460 6651 5796 16482 5525 6159 2405 58497 19844 9465 5332 1902 3935 569 2411 1809 1219 5493 1836 928 7680 3136 2809 4998 160633 81317 11567 3728 6065 1244 2489 253 3023 1988 2623 1947 878 5233 3675 908 3033 963 3307 1569
internal_count=325052 314890 10162 73946 25084 48862 19001 6260 240944 80311 15624 3902 3649 21814 29861 12744 4358 13476 9460 6651 5796 16482 5525 6159 2405 58497 19844 9465 5332 1902 3935 569 2411 1809 1219 5493 1836 928 7680 3136 2809 4998 160633 81317 11567 3728 6065 1244 2489 253 3023 1988 2623 1947 878 5233 3675 908 3033 963 3307 1569
is_linear=0
shrinkage=0.05


Tree=4
num_leaves=63
num_cat=0
split_feature=2 3 2 6 0 0 6 0 6 6 6 0 0 8 0 6 0 0 6 6 0 9 6 0 0 6 0 0 6 19 6 6 0 6 0 6 6 6 0 6 0 0 0 6 0 6 0 6 6 0 0 0 6 6 8 6 0 6 0 6 6 6
split_gain=3.76671e+06 1.00447e+06 479462 377093 255833 211364 418360 176714 213043 155779 135070 99484.8 99272.3 87124.9 129128 81099.6 71505.9 68866.4 68822.4 62398.5 60097.2 59810.7 56963.2 56478.3 52743.5 48134.6 53383.5 47841 42301.8 41401.1 38762.9 33200.8 55917.5 32597.9 211696 83472.3 31727.5 28407.8 28382.3 27332.8 42027.7 26085.5 26023.2 91226.6 24316.7 23008.1 22035.6 20648.6 19514.2 19215.3 18529.8 17705.3 49427.2 17265.2 16843.3 27168.1 16599.1 16276.9 16243.4 16154.4 15888.9 15250.3
threshold=661.36566438765374 757.40500000000009 1211.8739232899973 271.6184540229886 2275.7350000000006 1271.7449999999992 178.21532407407412 2943.23 389.90156321839089 196.85600961538464 430.8067241379311 6328.755000000001 1640.0650000000003 761.50000000000011 1856.1000000000001 414.31497931034488 1577.1300000000003 4304.9300000000012 144.33946428571429 285.50258045977017 3984.630000000001 14.500000000000002 236.74328148148149 1923.7350000000004 3537.9350000000009 224.21779503105594 2844.2200000000003 2844.2200000000003 513.45439583333348 138.50000000000003 144.33946428571429 341.01442307692309 2441.9750000000004 149.01414750957858 962.06000000000006 119.42388888888892 162.8196428571429 329.10350000000011 4794.755000000001 205.64322413793107 1539.5700000000002 3447.5500000000006 746.67000000000041 104.12236842105263 1113.6000000000004 343.9401379310346 4522.1750000000002 230.42176392572949 449.51018181818188 1289.8350000000005 2224.9300000000007 2115.1000000000008 300.97200000000004 616.04866666666692 8122.4750000000013 481.07724137931035 2224.9300000000007 212.4943903940887 1906.2050000000006 239.55909391534394 343.9401379310346 544.41472988505768
decision_type=2 2 2 2 2 2 2 2 2 2 2 2 2 2 2 2 2 2 2 2 2 2 2 2 2 2 2 2 2 2 2 2 2 2 2 2 2 2 2 2 2 2 2 2 2 2 2 2 2 2 2 2 2 2 2 2 2 2 2 2 2 2
left_child=1 5 10 4 9 33 16 31 24 12 17 15 30 14 39 46 18 19 -7 27 48 -13 56 -11 37 -6 -27 57 -22 54 49 32 -5 34 42 -36 -14 -9 -12 40 -8 -21 -1 -44 -37 -19 -4 -25 -10 -3 -24 -15 -53 -40 55 -23 -16 -2 -38 -29 -48 -17
right_child=2 3 11 7 25 6 13 8 20 23 38 21 36 51 22 61 -18 45 -20 41 28 29 50 47 -26 26 -28 59 -30 -31 -32 -33 -34 -35 35 44 58 -39 53 -41 -42 -43 43 -45 -46 -47 60 -49 -50 -51 -52 52 -54 -55 -56 -57 -58 -59 -60 -61 -62 -63
leaf_value=0.11799279561605565 -0.82651127415995773 -0.25653356955270146 -0.99803187555395745 0.080502828348431824 -0.87766395598825631 -0.51754415275663823 0.064114692746089524 -0.49909759155858446 -0.069533246251534064 0.035415223877701067 -0.0087905370769031498 -0.22306553101217427 -0.8679021867184803 0.10553446161307928 -0.31852908452678474 -0.69461324607477226 -0.5659049682122248 -1.4628865130626374 -0.15357586688588287 -0.21953776360303467 -0.37845373504587282 -1.8389142005610144 0.0055944046960514672 -0.35465134877583077 -0.6781589397949539 -0.43196414787210569 -0.87903409891225304 -1.3415491469385346 -0.072518306575452898 -0.94931999605910566 -0.10921356205316456 0.11312796314489403 -0.1825211324919182 0.12449493154223641 -0.41540193777422579 0.0084740661227845054 -0.3792789425297125 -0.21951183305608477 -0.61903541746563939 0.094667389877721775 -0.1850358128885749 -0.63492566124061867 -0.23220713275938476 0.09936672262488068 -0.17838729011309326 -0.97921352172209541 -1.6289599016581922 -0.12188713951817687 0.0951767255742276 -0.64588514186280443 -0.2140228784179577 -0.18972380259477162 0.084730486929378651 -0.18709513953438067 -2.0916037765042534 -1.4039983972024421 -0.62169963928402661 -0.41105996843452203 -0.65782024828069785 -0.95533556463459812 -1.2242035506413727 -0.026419539087436213
leaf_weight=74484 494 622 427 5058 1527 1671 4369 1565 3068 4378 611 74 928 33811 2500 309 2081 411 5831 616 1967 959 2310 1740 1624 2701 887 453 2655 181 2250 9113 3365 82095 2157 4617 1061 2166 573 10405 2763 978 2464 13121 2795 612 491 2106 4345 646 1644 2040 8376 388 290 574 551 451 1033 673 479 118
leaf_count=74484 494 622 427 5058 1527 1671 4369 1565 3068 4378 611 74 928 33811 2500 309 2081 411 5831 616 1967 959 2310 1740 1624 2701 887 453 2655 181 2250 9113 3365 82095 2157 4617 1061 2166 573 10405 2763 978 2464 13121 2795 612 491 2106 4345 646 1644 2040 8376 388 290 574 551 451 1033 673 479 118
internal_value=2.45178e-10 0.0305763 -0.947468 -0.163962 -0.337807 0.0715694 0.00292263 -0.0650142 -0.177954 -0.232229 -0.676316 -1.38248 -0.414357 0.0460521 -0.0294977 -1.11301 -0.306581 -0.810807 -0.234646 -0.709561 -0.0612164 -1.61901 -0.210965 -0.0873954 -0.440314 -0.642548 -0.542486 -0.890559 -0.202716 -1.67056 -0.233808 0.0469853 -0.0245756 0.101166 0.0819438 -0.141654 -0.624539 -0.336786 -0.275236 0.0429878 -0.0324084 -0.474399 0.105699 0.0469447 -0.0619897 -1.17353 -1.29733 -0.227194 0.0270086 -0.454894 -0.0857184 0.0879755 0.0309779 -0.444641 -1.74217 -1.67607 -0.373281 -0.628238 -0.516687 -1.11071 -1.42909 -0.50996
internal_weight=325052 314890 10162 54805 19879 260085 78352 34926 17390 14764 6260 3902 6540 68769 24542 1824 9583 4688 7502 3665 12035 2078 7005 8224 5355 5115 3588 2071 4622 2004 3518 17536 8423 181733 99638 9569 3022 3731 1572 17537 7132 1594 90069 15585 7412 1023 1397 3846 7413 1268 3954 44227 10416 961 1823 1533 3051 945 2094 1126 970 427
internal_count=325052 314890 10162 54805 19879 260085 78352 34926 17390 14764 6260 3902 6540 68769 24542 1824 9583 4688 7502 3665 12035 2078 7005 8224 5355 5115 3588 2071 4622 2004 3518 17536 8423 181733 99638 9569 3022 3731 1572 17537 7132 1594 90069 15585 7412 1023 1397 3846 7413 1268 3954 44227 10416 961 1823 1533 3051 945 2094 1126 970 427
is_linear=0
shrinkage=0.05


Tree=5
num_leaves=63
num_cat=0
split_feature=3 3 6 0 6 0 3 6 0 6 6 0 6 0 6 9 0 0 6 6 0 0 0 6 0 6 0 6 0 0 6 6 6 0 0 6 0 0 6 0 6 19 6 6 0 6 6 6 0 6 0 0 6 6 0 6 6 0 6 0 0 1
split_gain=3.36706e+06 1.0788e+06 374754 241206 430383 228670 216222 178147 149912 153469 130726 91949 94113.3 88681.3 214940 85322.6 84969.5 76896 71219.8 55967.1 62554.2 44460.4 44342.5 51317.4 42330.8 38682.2 37864.7 36813.9 44354 36247.4 261080 42534.9 36007.2 35820.5 34823.9 33030.6 45120.9 29057.9 28214.2 41659.1 26542.6 25654.9 25605.6 25362.9 45177.9 24176.3 23902.6 21305.9 21212.8 21161.9 20761.8 19896.9 18157.9 17925.5 17825 17820.2 16748.7 15929.4 15818.6 15219.5 13923 13683.7
threshold=2176.7650000000008 838.34500000000014 298.71639285714292 1317.1850000000002 191.51056216931224 2441.9750000000004 3785.2350000000006 209.12982758620691 3229.1250000000005 419.49509920634927 456.4510416666667 1680.245000000001 156.30362318840579 1923.7350000000004 266.06555555555559 14.500000000000002 5122.8450000000012 1810.0250000000003 318.05102380952388 227.89007142857142 3167.5400000000004 2012.865 7700.0350000000008 464.02947701149429 3984.630000000001 156.30362318840579 4522.1750000000002 220.63418571428574 1589.595 879.95000000000016 129.81806250000002 111.54421404682274 177.23999166666673 2355.4250000000006 1081.8350000000003 156.30362318840579 1113.6000000000004 5122.8450000000012 364.80051948051954 2675.8150000000001 585.29253703703705 139.50000000000003 225.45916666666668 318.05102380952388 2441.9750000000004 244.96668582375483 353.7834482758621 738.37174074074085 3853.2250000000008 130.70065217391308 3853.2250000000008 1460.3900000000003 257.23637931034489 490.48883333333339 1376.2850000000003 159.96916264090177 364.80051948051954 2012.865 260.71870370370374 1033.1350000000004 6328.755000000001 990.40988095238083
decision_type=2 2 2 2 2 2 2 2 2 2 2 2 2 2 2 2 2 2 2 2 2 2 2 2 2 2 2 2 2 2 2 2 2 2 2 2 2 2 2 2 2 2 2 2 2 2 2 2 2 2 2 2 2 2 2 2 2 2 2 2 2 2
left_child=1 3 5 29 11 7 10 17 38 24 16 12 49 27 33 -8 18 25 48 -7 58 -9 23 60 46 54 53 28 -6 -1 31 59 -19 42 -33 36 -32 -12 39 -4 -28 -24 -15 44 -16 -23 -10 61 52 -5 -20 -14 -2 -11 -3 -13 -18 -57 -21 -31 -17 -39
right_child=6 2 8 4 13 19 15 21 9 26 37 55 51 14 43 22 56 32 50 20 -22 45 41 -25 -26 -27 40 -29 -30 30 35 34 -34 -35 -36 -37 -38 47 -40 -41 -42 -43 -44 -45 -46 -47 -48 -49 -50 -51 -52 -53 -54 -55 -56 57 -58 -59 -60 -61 -62 -63
leaf_value=0.11030963790901208 -1.117783215889923 -0.28255899174110549 0.068487279776704851 -0.73512918065602118 0.089441223452038282 -0.94057491129758408 -0.1231103063962324 0.041956136600833499 -0.5154847320074829 -0.09866808282734936 -0.02372260325185745 -0.82534889189045091 -0.038144790961929513 -0.36907706890715469 0.043326488315371642 -1.3077283871764693 -1.6706678667984443 -0.87403993695281279 -0.26475710849480627 -0.5763508165960699 -0.90904174378095581 -0.33941531464490554 -1.7887058107274296 -0.69937498882614291 -0.71634887002061154 -0.15466080914442248 -0.38764277649610995 0.11336840790221824 -0.12155328724624306 -0.30949137063598292 0.094158661776003058 -0.047124750428207685 -0.50609532803279944 -0.51969975857507611 -0.33636654374599462 0.11766778496718427 -0.11066014664435404 -0.51432264769294611 0.10365561854842942 -0.19574797731024865 -0.062359811113494347 -0.98720499889270696 -0.14220290973702815 0.087245237543431289 -0.26181975270305236 -0.094178046355040762 -0.24243460298894939 -0.093064427741526345 -1.3155728695519819 -0.38610967294018161 -0.7042249583698692 -0.20034104413246481 -0.70086369782358737 0.075559042388713499 -0.64365763894927053 -0.41929811837897524 -1.2340909741291317 -0.79017761058585601 -0.36246314910254485 -0.58577526522540124 -1.68280398346657 -1.0258584824677939
leaf_weight=121885 613 580 3604 537 6214 1176 123 3408 1342 2777 391 445 4039 1894 4966 686 354 1075 374 1526 968 1804 993 296 1051 2033 1357 31758 4157 1605 7947 3398 1743 1218 1500 47491 4064 336 7489 2545 1166 111 3622 14472 1605 2269 1990 185 581 2271 955 3555 455 3152 832 1828 579 344 1994 723 387 214
leaf_count=121885 613 580 3604 537 6214 1176 123 3408 1342 2777 391 445 4039 1894 4966 686 354 1075 374 1526 968 1804 993 296 1051 2033 1357 31758 4157 1605 7947 3398 1743 1218 1500 47491 4064 336 7489 2545 1166 111 3622 14472 1605 2269 1990 185 581 2271 955 3555 455 3152 832 1828 579 344 1994 723 387 214
internal_value=8.04255e-10 0.0249546 -0.199291 0.0628447 -0.0082263 -0.366184 -1.03774 -0.256007 -0.0769374 -0.199586 -0.846692 -0.272177 -0.205528 0.0409308 -0.028424 -1.40842 -0.983368 -0.452746 -0.85292 -0.633533 -0.553078 -0.0912991 -1.47235 -1.28222 -0.439678 -0.294291 -0.0750807 0.0866587 0.00486846 0.0940915 0.0644675 -0.219337 -0.646457 -0.274292 -0.135704 0.0989331 0.0248569 -0.37197 0.03849 -0.0408766 -0.237314 -1.70812 -0.220104 0.0502567 -0.031207 -0.202798 -0.352409 -0.557229 -1.07243 -0.452856 -0.580552 -0.114074 -0.940163 -0.00604472 -0.495331 -0.537095 -1.39974 -0.478038 -0.455188 -0.395296 -1.44301 -0.713357
internal_weight=325052 317419 45881 271538 82925 19408 7633 13744 26473 12835 5037 13019 10402 69906 27777 2596 3911 6263 2978 5664 4488 7481 2473 1369 4383 3445 8452 42129 10371 188613 66728 7226 2818 6734 4898 59502 12011 1126 13638 6149 2523 1104 5516 21043 6571 4073 3332 735 1649 2808 1329 7594 1068 5929 1412 2617 933 2172 3520 2328 1073 550
internal_count=325052 317419 45881 271538 82925 19408 7633 13744 26473 12835 5037 13019 10402 69906 27777 2596 3911 6263 2978 5664 4488 7481 2473 1369 4383 3445 8452 42129 10371 188613 66728 7226 2818 6734 4898 59502 12011 1126 13638 6149 2523 1104 5516 21043 6571 4073 3332 735 1649 2808 1329 7594 1068 5929 1412 2617 933 2172 3520 2328 1073 550
is_linear=0
shrinkage=0.05


Tree=6
num_leaves=63
num_cat=0
split_feature=3 3 6 0 6 0 3 0 6 6 6 0 6 0 6 9 0 6 0 0 0 0 6 6 0 6 0 0 6 6 0 0 6 6 0 6 0 6 0 0 6 6 19 6 6 0 0 0 6 6 6 0 6 6 6 6 0 0 0 6 0 6
split_gain=3.03877e+06 973618 339118 217724 394378 199342 195140 139059 193234 122348 117980 77956.8 83239.6 77914.7 192840 77197.5 76685 64346.7 60816.2 45988.4 44003 40949.5 47334.7 40550.8 49790.7 39126.5 46675.6 38941.1 36561.7 36141.3 47618.8 34723.4 245667 36072.2 42851.1 35988.5 32831.5 29912.5 28612.4 26224.8 24047.5 23170.8 23070.9 22133.2 21146.4 32906.4 20441.1 19963.1 19547.2 19228.6 19162.9 16858.9 15714.4 15177.3 15115.7 14701.6 14279.6 13241.4 12903 12845.9 12760 17365.2
threshold=2176.7650000000008 838.34500000000014 271.6184540229886 1336.6150000000005 192.54123152709363 2328.0050000000001 3785.2350000000006 3048.8250000000003 394.34833333333336 195.75659770114945 456.4510416666667 1707.9650000000004 159.06273946360156 1976.9800000000002 271.6184540229886 13.500000000000002 5122.8450000000012 310.43700123152718 1680.245000000001 4132.3750000000009 3853.2250000000008 7700.0350000000008 430.8067241379311 207.9944880952381 2943.23 224.21779503105594 1653.3100000000002 1958.2150000000004 513.45439583333348 341.01442307692309 2470.9500000000003 894.37000000000012 129.81806250000002 154.39875000000004 1131.0250000000003 109.49175555555554 1097.7450000000001 332.06765915119371 2383.9500000000007 5122.8450000000012 149.92815833333336 234.12513103448279 139.50000000000003 163.77863076923077 318.05102380952388 2501.8000000000002 3744.6000000000008 3744.6000000000008 456.4510416666667 738.37174074074085 132.53386666666668 1493.2150000000001 227.89007142857142 159.96916264090177 364.80051948051954 238.12318518518521 6328.755000000001 2033.0500000000002 6328.755000000001 234.12513103448279 2675.8150000000001 380.947
decision_type=2 2 2 2 2 2 2 2 2 2 2 2 2 2 2 2 2 2 2 2 2 2 2 2 2 2 2 2 2 2 2 2 2 2 2 2 2 2 2 2 2 2 2 2 2 2 2 2 2 2 2 2 2 2 2 2 2 2 2 2 2 2
left_child=1 3 5 31 11 9 10 29 20 18 16 12 50 25 38 -8 17 47 40 48 37 22 56 -7 59 26 -6 -11 -21 30 -4 -1 35 34 -34 -33 -37 -9 41 -12 -3 -15 -23 -20 45 -16 -19 55 -10 -41 -5 -14 -29 -13 -18 -2 -17 -55 -56 -25 -46 -62
right_child=6 2 7 4 13 23 15 8 19 27 39 53 51 14 44 21 54 46 43 28 -22 42 -24 24 -26 -27 -28 52 -30 -31 -32 32 33 -35 -36 36 -38 -39 -40 49 -42 -43 -44 -45 60 -47 -48 -49 -50 -51 -52 -53 -54 57 58 -57 -58 -59 -60 -61 61 -63
leaf_value=0.10435868337020904 -1.1077950020109555 -0.45124432434342227 0.063528809240972831 -0.69779528874883645 0.070932617927504507 -0.97440621766339852 -0.029325121503185343 -0.53578830472481542 -0.092859933225737615 0.011144081767224132 -0.022536473063623434 -0.82574912737746264 -0.047416574644643363 -0.34814777822947768 0.030872133080539939 -1.2664763218401405 -1.5871344744148903 -0.22689693562120403 -0.83380037083683245 -0.38880217413507101 -0.74531168930691361 -1.6978332281831521 -0.75726166095760261 -0.62324960781977734 -0.90553003636675289 0.10715818575753766 -0.14512852080382263 -0.36742670907854419 -0.086561515612323683 0.095796410861214737 -0.20433453590443135 -0.4202944963498858 0.078733465243160147 0.10990467253436523 -0.13360282722034625 -0.074380916320049034 -0.35706986192161283 -0.25574737213405146 -0.49135185380940388 -0.67768876268748546 -0.12763955213930808 -0.1298491878570405 -0.93784473629685139 -0.51747790724668574 0.11305038494569278 -0.26654609384784894 -0.67336372198673777 -1.2561373828091398 0.081109895943417193 -0.088411206816499305 -0.3706360397348864 -0.20242128439419724 -0.14404436248503982 -0.41693160170689225 -0.99165403235448546 -0.70788612261209605 -1.6719741982680103 -0.76721727448220589 -1.4806449137001394 -0.40663282199758871 -0.13472099654924286 0.079518641831625714
leaf_weight=124418 419 1013 3502 551 7461 799 108 1679 2812 3070 391 362 3986 2083 4019 654 354 334 830 1641 1023 995 403 1066 917 31774 3759 1353 2564 7683 3153 1775 7218 49178 3542 3481 1457 2207 1214 550 1325 2919 111 1657 9350 1210 1103 613 3792 185 2385 3133 1883 1664 365 509 325 322 214 1912 1412 2865
leaf_count=124418 419 1013 3502 551 7461 799 108 1679 2812 3070 391 362 3986 2083 4019 654 354 334 830 1641 1023 995 403 1066 917 31774 3759 1353 2564 7683 3153 1775 7218 49178 3542 3481 1457 2207 1214 550 1325 2919 111 1657 9350 1210 1103 613 3792 185 2385 3133 1883 1664 365 509 325 322 214 1912 1412 2865
internal_value=-7.09542e-10 0.0237069 -0.189326 0.0597024 -0.00928802 -0.376663 -0.985852 -0.0906902 -0.193409 -0.261423 -0.804358 -0.268595 -0.20802 0.0379629 -0.0320897 -1.338 -0.934199 -0.810274 -0.450932 -0.0752633 -0.45355 -1.39481 -1.21335 -0.649933 -0.583373 0.0788141 -0.00145364 -0.116421 -0.204511 0.0219148 -0.0633792 0.0887579 0.0596356 0.091761 0.00883615 -0.2272 -0.157791 -0.376743 -0.273604 -0.353372 -0.26785 -0.220756 -1.62156 -0.623046 0.0475271 -0.037951 -0.569592 -1.03471 0.0070331 -0.529367 -0.432034 -0.115633 -0.237442 -0.527998 -1.32975 -0.888448 -1.40109 -0.473725 -1.17239 -0.484173 0.080327 0.00879001
internal_weight=325052 317419 45881 271538 80469 15825 7633 30056 15718 11131 5037 12403 10055 68066 25072 2596 3911 2978 4825 10809 4909 2488 1382 4694 3895 42994 11220 6306 4205 14338 6655 191069 66651 59938 10760 6713 4938 3886 6216 1126 2338 5002 1106 2487 18856 5229 1437 1541 6604 735 2936 7119 3236 2348 933 928 979 1986 579 2978 13627 4277
internal_count=325052 317419 45881 271538 80469 15825 7633 30056 15718 11131 5037 12403 10055 68066 25072 2596 3911 2978 4825 10809 4909 2488 1382 4694 3895 42994 11220 6306 4205 14338 6655 191069 66651 59938 10760 6713 4938 3886 6216 1126 2338 5002 1106 2487 18856 5229 1437 1541 6604 735 2936 7119 3236 2348 933 928 979 1986 579 2978 13627 4277
is_linear=0
shrinkage=0.05


Tree=7
num_leaves=63
num_cat=0
split_feature=2 3 2 6 0 0 6 6 6 0 6 0 9 0 0 0 6 0 6 0 0 6 6 0 0 6 6 6 0 19 0 6 6 0 6 0 0 6 6 6 6 6 0 6 0 6 0 0 6 9 6 6 0 0 6 6 0 0 0 8 9 6
split_gain=2.77695e+06 740486 352714 293050 267390 178948 228157 112538 104827 104385 275476 77756.6 76810.2 67839.1 66817.9 57572.8 57096.1 65011.7 55201.1 53735.1 52962.7 50988.5 49859.7 44488 43282.2 124797 36245.5 35180.8 65722.5 34692.7 30923.6 28909.9 28861 26717.9 26582.4 31247.6 24855.8 24282.5 23016.9 22600.6 21325.8 21219.9 140395 32767.8 23099.9 62153.3 18913.4 15678.1 15399.9 15286.9 14119.2 14002.5 13989.5 13732 13440.9 13039.4 28454.3 12853.7 12830.3 12194.2 12156.7 11910.9
threshold=661.36566438765374 652.75500000000011 1211.8739232899973 247.91968965517245 1994.8200000000002 2715.8000000000006 353.7834482758621 172.35805097451279 380.947 1181.825 171.37593103448282 1406.615 17.500000000000004 6328.755000000001 3637.4500000000012 3447.5500000000006 193.60213913043484 2470.9500000000003 464.02947701149429 1449.1400000000003 3369.2400000000002 376.86483333333337 135.35060000000001 1667.0850000000003 1602.135 232.83907407407409 253.98458095238098 305.67516666666671 2201.7550000000006 110.50000000000001 4522.1750000000002 513.45439583333348 294.17899122807023 1840.8500000000004 294.17899122807023 4522.1750000000002 2201.7550000000006 204.55300000000003 403.8199444444445 143.4236437246964 134.42844444444447 131.60455882352943 901.67500000000007 108.45076388888891 680.45000000000039 96.336770833333347 4794.755000000001 4304.9300000000012 203.44932183908051 11.500000000000002 146.18717948717952 616.04866666666692 2994.2200000000007 4794.755000000001 218.24970695970697 271.6184540229886 2053.7350000000001 1009.2299999999999 1721.0450000000003 8122.4750000000013 23.500000000000004 195.75659770114945
decision_type=2 2 2 2 2 2 2 2 2 2 2 2 2 2 2 2 2 2 2 2 2 2 2 2 2 2 2 2 2 2 2 2 2 2 2 2 2 2 2 2 2 2 2 2 2 2 2 2 2 2 2 2 2 2 2 2 2 2 2 2 2 2
left_child=1 9 8 4 7 27 20 11 15 41 19 40 49 21 38 26 -6 54 47 22 32 53 -11 -9 61 33 36 28 -5 60 -10 -32 -7 48 -17 -36 -2 -25 -8 -13 -3 42 44 -44 -1 -46 -20 -16 -26 -4 -21 -48 -19 -14 -18 56 -27 -45 -41 -31 -15 -12
right_child=2 3 12 5 16 6 14 23 30 10 24 39 13 29 18 34 17 52 46 50 -22 -23 -24 37 25 55 -28 -29 -30 59 31 -33 -34 -35 35 -37 -38 -39 -40 58 -42 -43 43 57 45 -47 51 -49 -50 -51 -52 -53 -54 -55 -56 -57 -58 -59 -60 -61 -62 -63
leaf_value=0.10298016392921752 -0.29733207058056854 -0.2994416973618057 0.05718743495136789 0.078448756786605595 -0.79988172086557952 -0.49257943022398304 -0.075558737542084142 0.0589781483869391 -0.063500136759761183 -0.4435595865636659 0.037186861097749761 -0.73467158639769847 -1.009095464779566 -1.265301440719472 -0.28033428147819889 -1.1902862580568061 -0.44562677393296463 -0.627621117098765 0.00059108927753966783 -0.66970336757557414 -0.66318543888628489 -0.63176869924769063 -0.10171024266328535 -0.29172834625149741 -0.20789549097651736 0.065090919505143188 -0.30642301334551791 0.096819518582157954 -0.16913468412928612 -1.0003972635773772 -0.69290769928906981 -0.23024737090363565 -0.2336509812747013 -0.30935742434959451 -0.61839459835070576 -1.1354255194098624 -0.84140041865666382 -0.066095893504447945 0.084825390147004465 -0.32505247410043059 -0.031143320657811849 0.10668823651840725 -0.38998690375424838 -0.022159208697417318 -0.22524614323012276 0.077775843868930994 -0.36375737949911702 -0.56485375019220208 -0.022978933421869102 -0.68251286791766297 -0.37466196210870595 -0.055502888990982949 -1.0087073349616897 -1.3731740177846423 -0.26422991768513199 0.095863231123068618 -0.19785628936025118 -0.19397027147744145 -0.58291152252091305 -1.7390577316284181 -1.6432705993516219 0.10840234438865007
leaf_weight=59159 267 1257 103 6718 1330 1620 3309 5245 838 1306 7450 774 449 259 1898 646 1642 1584 3345 521 1472 567 5820 1869 1983 4862 882 15016 4460 440 643 711 3206 2380 844 447 982 3294 6905 1333 1803 91190 1291 2306 2029 10195 760 650 2605 217 1829 715 284 612 2701 14943 1305 2062 756 64 1191 27708
leaf_count=59159 267 1257 103 6718 1330 1620 3309 5245 838 1306 7450 774 449 259 1898 646 1642 1584 3345 521 1472 567 5820 1869 1983 4862 882 15016 4460 440 643 711 3206 2380 844 447 982 3294 6905 1333 1803 91190 1291 2306 2029 10195 760 650 2605 217 1829 715 284 612 2701 14943 1305 2062 756 64 1191 27708
internal_value=-6.30635e-10 0.0262535 -0.813518 -0.112151 -0.256311 -0.0434247 -0.142419 -0.142599 -0.580951 0.06873 0.018671 -0.31659 -1.18663 -1.25293 -0.0499202 -0.731144 -0.502569 -0.438903 -0.164684 -0.232737 -0.400647 -1.01454 -0.164362 -0.0435838 0.0563448 0.0100565 -0.55181 0.0468245 -0.0203365 -1.45155 -0.302217 -0.44996 -0.320569 -0.17342 -0.928438 -0.797413 -0.725094 -0.147775 0.0328662 -0.503881 -0.141356 0.0903661 0.0710465 -0.168676 0.0900509 0.0274788 -0.065179 -0.352916 -0.102903 -0.444422 -0.440073 -0.214332 -0.685559 -1.2191 -0.332812 0.0706184 0.00944861 -0.103266 -0.418371 -1.0942 -1.57576 0.0933117
internal_weight=325052 314890 10162 73946 23872 50074 23880 16331 6260 240944 72712 5923 3902 3582 17582 4068 7541 6211 7368 9476 6298 1628 7126 10408 63236 28078 2131 26194 11178 1954 2192 1354 4826 6968 1937 1291 1249 5163 10214 2863 3060 168232 77042 5659 71383 12224 4820 2548 4588 320 2350 1475 1868 1061 4343 21110 6167 4368 2089 504 1450 35158
internal_count=325052 314890 10162 73946 23872 50074 23880 16331 6260 240944 72712 5923 3902 3582 17582 4068 7541 6211 7368 9476 6298 1628 7126 10408 63236 28078 2131 26194 11178 1954 2192 1354 4826 6968 1937 1291 1249 5163 10214 2863 3060 168232 77042 5659 71383 12224 4820 2548 4588 320 2350 1475 1868 1061 4343 21110 6167 4368 2089 504 1450 35158
is_linear=0
shrinkage=0.05


Tree=8
num_leaves=63
num_cat=0
split_feature=2 3 6 0 0 0 6 6 0 6 6 19 0 6 0 0 6 0 6 0 19 0 0 6 0 6 0 0 6 6 0 6 0 6 6 6 0 0 6 6 0 0 6 6 6 6 6 6 6 0 0 0 0 0 6 19 6 0 6 0 0 0
split_gain=2.50705e+06 787719 270660 188641 179307 165890 315799 130815 127885 121147 116441 80267 62792.1 167330 61592.6 59225.3 58540 46308 45951.2 49498.2 41771.6 36787 33900 32623.6 51411.2 28726.1 28522.7 27770.2 27275.3 25998.7 171585 53540.1 25557.1 43583.3 24717.1 24504.9 27281.2 23404.6 74473.6 22869.8 22291.2 21695.5 46203.5 21564.1 19687.7 19454.5 17055.6 16493.9 15662.9 15531 14996.2 14607.5 14526.6 14002.2 13923.3 13564.3 13111.7 12407 12333.9 12193 10693.1 10601.6
threshold=782.49523630069632 807.08000000000004 294.17899122807023 2383.9500000000007 5586.045000000001 1298.655 185.3412142857143 201.25296470588242 3369.2400000000002 419.49509920634927 372.65267857142857 126.50000000000001 1810.0250000000003 252.42550000000003 1627.595 1721.0450000000003 150.80806547619051 4304.9300000000012 227.89007142857142 3048.8250000000003 33.500000000000007 1976.9800000000002 2157.150000000001 368.68689285714294 2755.0250000000005 269.70645238095238 4522.1750000000002 4132.3750000000009 150.80806547619051 148.02867521367523 984.76000000000022 119.42388888888892 7700.0350000000008 394.34833333333336 561.76800000000014 212.4943903940887 1516.0300000000009 783.10000000000014 106.30291149068324 172.35805097451279 2844.2200000000003 2328.0050000000001 332.06765915119371 239.55909391534394 214.74520833333335 490.48883333333339 501.27353448275875 343.9401379310346 326.2669252873564 1138.9449999999999 4304.9300000000012 3447.5500000000006 1326.8950000000004 1840.8500000000004 91.476324786324795 158.50000000000003 128.90593406593408 1449.1400000000003 658.44044047619059 3637.4500000000012 2640.3350000000005 1481.6950000000002
decision_type=2 2 2 2 2 2 2 2 2 2 2 2 2 2 2 2 2 2 2 2 2 2 2 2 2 2 2 2 2 2 2 2 2 2 2 2 2 2 2 2 2 2 2 2 2 2 2 2 2 2 2 2 2 2 2 2 2 2 2 2 2 2
left_child=1 5 3 7 10 29 14 15 23 27 17 20 35 22 16 28 56 25 -5 -20 58 -9 44 24 -4 40 46 47 52 30 37 -32 33 -22 -28 36 -8 -1 54 -17 -2 -15 60 -23 -14 50 -11 -10 -19 -33 -12 -27 -3 -16 -39 -13 -7 -18 -6 -21 -43 -30
right_child=4 2 8 18 11 6 12 21 9 26 45 55 13 41 53 39 57 48 19 59 32 43 -24 -25 -26 51 34 -29 61 -31 31 49 -34 -35 -36 -37 -38 38 -40 -41 -42 42 -44 -45 -46 -47 -48 -49 -50 -51 -52 -53 -54 -55 -56 -57 -58 -59 -60 -61 -62 -63
leaf_value=0.094973682772287293 -0.56227843653911092 -0.21637929649259935 0.047723198377304862 -0.78526194446427489 -0.94861746730883267 -0.63759376310533167 0.083526965347969273 0.03492405095816891 -0.53566891938480954 -0.10261906359436002 -0.12454067817803782 -0.8522117157685285 -0.30009338503779331 0.084203031578263865 -0.39048893894984998 -0.72386317295763702 -0.057991820845286479 -1.3047298909936633 -0.36354059645578835 -0.66427472193241122 -1.5250730987015466 -0.29782404718692373 -0.40899522123240106 0.087066050281723303 -0.20912053373476819 -0.24583861087311487 -0.37647384365501613 -0.6959324400397342 0.028475878678036172 0.10155010036682686 -0.38061960955491719 -0.024438084691829318 -1.5698100350852249 -0.96022596926336556 -0.074846256224125565 0.10030611559104885 -0.09269672944668271 -0.45523946498121531 0.076622904993383201 -0.43222768080121404 -1.0520453836798354 -0.10858538826760578 0.062935739647614453 -0.076235067127658096 -0.09746228798337668 0.016020644235394815 0.076191417045410492 -0.27738027880543531 -0.9182711582880233 -0.18242724603910124 -0.55761895050389543 -0.65286392094954016 -0.55526775074653889 -0.64859125806033457 -0.16752650793905258 -0.3665229194424226 -0.34533578488483746 -0.1973493097277795 -0.1600014290284543 -1.0910503102772271 -0.30911627239270378 -0.21273947979247257
leaf_weight=77174 335 555 5131 1400 121 496 4975 3990 903 2757 300 392 1768 14896 1713 1118 4004 560 3489 1000 658 1967 1874 9191 3141 305 1267 777 791 86903 1932 4273 947 710 1464 29651 3932 560 11003 1686 758 2094 6540 2485 3723 374 2583 1959 493 2446 599 795 735 758 1688 227 1696 2657 84 201 974 1074
leaf_count=77174 335 555 5131 1400 121 496 4975 3990 903 2757 300 392 1768 14896 1713 1118 4004 560 3489 1000 658 1967 1874 9191 3141 305 1267 777 791 86903 1932 4273 947 710 1464 29651 3932 560 11003 1686 758 2094 6540 2485 3723 374 2583 1959 493 2446 599 795 735 758 1688 227 1696 2657 84 201 974 1074
internal_value=-1.10447e-10 0.0215692 -0.161318 -0.300592 -0.893957 0.0554949 -0.00386828 -0.201938 -0.0634929 -0.191334 -0.692313 -1.18425 0.0355375 -0.0163935 -0.248943 -0.381303 -0.187337 -0.851256 -0.533881 -0.458842 -1.30956 -0.0753278 -0.225373 0.0222324 -0.0498041 -0.720393 -0.083346 -0.430843 -0.232701 0.0815892 0.0640807 -0.148653 -1.37014 -1.23191 -0.214781 0.0784595 0.00573292 0.0844331 0.0230445 -0.548507 -0.901934 0.0464182 -0.0121625 -0.174138 -0.162706 -0.287026 -0.016127 -0.358874 -1.1238 -0.0819528 -0.413099 -0.540007 -0.409467 -0.469664 -0.239199 -0.6741 -0.411467 -0.11358 -0.625477 -0.7357 -0.172248 -0.110433
internal_weight=325052 317394 49664 20491 7658 267730 81751 14401 29173 11710 4519 3139 70427 31869 11324 5959 8853 3246 6090 4690 2520 8442 7365 17463 8272 2193 8071 3639 3155 185979 99076 8651 2315 1368 2731 38558 8907 90425 13251 2804 1093 24504 9608 4452 5491 1273 5340 2862 1053 6719 899 1100 1290 2471 2248 619 2192 6661 205 1201 3068 1865
internal_count=325052 317394 49664 20491 7658 267730 81751 14401 29173 11710 4519 3139 70427 31869 11324 5959 8853 3246 6090 4690 2520 8442 7365 17463 8272 2193 8071 3639 3155 185979 99076 8651 2315 1368 2731 38558 8907 90425 13251 2804 1093 24504 9608 4452 5491 1273 5340 2862 1053 6719 899 1100 1290 2471 2248 619 2192 6661 205 1201 3068 1865
is_linear=0
shrinkage=0.05


Tree=9
num_leaves=63
num_cat=0
split_feature=2 3 2 6 0 0 6 6 0 0 6 6 6 0 0 6 0 0 0 6 6 0 6 9 0 0 6 0 0 0 6 8 6 6 0 6 6 6 6 0 6 0 6 6 6 0 6 0 6 0 6 6 0 5 0 0 0 0 6 1 0 0
split_gain=2.26602e+06 564520 346897 237851 213489 138785 178752 91819.7 90165.9 83707.9 225125 78265.8 77368.2 59891.4 56722.9 52038.4 58898.2 49382.8 47850.2 46878.8 45347.1 40629.8 115792 36220.3 33849.4 31970.3 26129.1 26035.2 25860.8 25072.4 23721 40791.1 23021.1 22298.3 39742 21474.1 21391.2 20504.7 20011.6 19210.7 19125.6 18068.4 17296.2 16946.4 16875.2 31338.9 16336.3 106358 33442.1 15566.8 14913.1 14533.7 13886.4 13575.8 13461.3 13148.3 12992.2 12410.1 12275.2 12106.3 12093 11594.6
threshold=620.99889993235161 646.7600000000001 1018.525626018118 247.91968965517245 1939.6650000000002 2602.7950000000005 347.08500000000009 169.46603846153849 6328.755000000001 1113.6000000000004 164.7042911877395 350.51724137931041 414.31497931034488 1396.6000000000001 3637.4500000000012 187.40996296296296 2412.0050000000006 1428.23 3294.6500000000001 464.02947701149429 133.49618181818184 1539.5700000000002 218.24970695970697 15.500000000000002 3105.7000000000003 1627.595 224.21779503105594 5122.8450000000012 3744.6000000000008 1793.865 490.48883333333339 8122.4750000000013 490.48883333333339 289.77977777777784 2095.4250000000006 211.36738095238096 298.71639285714292 403.8199444444445 300.97200000000004 2157.150000000001 257.23637931034489 3984.630000000001 141.60933333333335 120.36409226190477 260.71870370370374 2012.865 123.18802018633541 797.84000000000071 98.643695652173918 946.33999999999992 218.24970695970697 544.41472988505768 3105.7000000000003 18858.000000000004 4794.755000000001 4794.755000000001 2892.0550000000007 3984.630000000001 341.01442307692309 1225.7483333333332 4522.1750000000002 7700.0350000000008
decision_type=2 2 2 2 2 2 2 2 2 2 2 2 2 2 2 2 2 2 2 2 2 2 2 2 2 2 2 2 2 2 2 2 2 2 2 2 2 2 2 2 2 2 2 2 2 2 2 2 2 2 2 2 2 2 2 2 2 2 2 2 2 2
left_child=1 9 11 4 7 33 18 13 12 46 17 24 27 43 37 -6 50 20 36 60 -11 -12 29 -10 26 -9 39 38 -13 -23 61 53 55 34 -5 -27 -7 52 57 -2 -26 -42 -15 -3 45 -24 47 -1 -49 -50 -17 -14 -8 59 -21 -30 -18 -4 -29 -32 -16 -25
right_child=2 3 8 5 15 6 14 25 23 10 21 28 51 42 19 16 56 -19 -20 54 -22 22 44 30 40 35 -28 58 32 -31 31 -33 -34 -35 -36 -37 -38 -39 -40 -41 41 -43 -44 -45 -46 -47 -48 48 49 -51 -52 -53 -54 -55 -56 -57 -58 -59 -60 -61 -62 -63
leaf_value=0.085639953528901983 -0.32912781221127302 -0.35786025090336249 -0.8299470802963671 0.086486858320467819 -0.73467540181737911 -0.37987793533507247 0.014073048132705823 0.060829722964139001 -0.24631290991197932 -0.36289688439061119 0.086632467973163513 0.021919632893137891 -0.48191928405974371 -0.66836418832376965 -0.27734249451588761 -0.38428318980304998 -0.54080121647106127 -0.43453510853986521 -0.58939823976019567 0.0022460229244079268 -0.083548222470916894 -0.11640449013809157 0.043963555094166024 -1.321980696996053 -1.0666288071309642 -0.2197674681781929 -0.27454341435105289 -1.4177455989592667 -0.36081235198649819 -0.33457455933574454 -0.78617988782437898 -1.6380485949692905 -0.16151252013239753 0.088738992319596963 -0.13401041036185901 -0.017241272924127023 -0.17902645076378226 0.081562419149792786 -0.64920949826099239 -0.81474876921055683 -0.5367134404875511 -0.9374491384725252 -0.37781164687349311 -0.06733097210112457 0.085432814149912301 -0.21481417841094894 0.097222015845538148 -0.36842254832728805 -0.010939739244115522 -0.18970423626224772 -0.20858695912153558 0.045983178884456945 -0.169274622287305 -0.55385328268117096 -0.187280512687138 -0.72737043107729504 -0.86642769903750028 -1.2447435393610498 -1.021030719235817 -1.2502974656563772 -0.58866047371960473 -1.6647021315704582
leaf_weight=59558 311 637 402 4539 1198 2305 2786 5079 88 1888 39148 691 480 707 2079 2102 1780 1841 1431 3234 6302 4504 6558 675 393 2535 985 327 668 1861 253 270 1016 15681 3717 2706 3120 7574 759 590 860 418 1859 2367 17618 1424 92412 1177 3454 1881 2839 179 1641 188 1319 386 370 327 483 316 367 389
leaf_count=59558 311 637 402 4539 1198 2305 2786 5079 88 1888 39148 691 480 707 2079 2102 1780 1841 1431 3234 6302 4504 6558 675 393 2535 985 327 668 1861 253 270 1016 15681 3717 2706 3120 7574 759 590 860 418 1859 2367 17618 1424 92412 1177 3454 1881 2839 179 1641 188 1319 386 370 327 483 316 367 389
internal_value=2.94825e-10 0.02523 -0.69077 -0.0955114 -0.224174 -0.0330339 -0.113352 -0.116868 -0.995959 0.0625026 0.0212028 -0.442677 -0.816121 -0.280469 -0.0343795 -0.429881 -0.378388 -0.200543 -0.332207 -0.147506 -0.147945 0.0524817 0.0106568 -1.24001 -0.597722 -0.028567 -0.452538 -0.953081 -0.242933 -0.180193 -1.28183 -1.11041 -0.331345 0.0537228 -0.012785 -0.1152 -0.264365 0.0315958 -0.828911 -0.647126 -0.761587 -0.667783 -0.457866 -0.128938 0.0581083 -0.00220276 0.0836484 0.0646631 -0.127189 -0.073968 -0.283332 -0.338528 -0.0538903 -0.922222 -0.0526596 -0.495055 -0.596839 -1.01601 -1.18119 -1.04393 -0.324053 -1.44728
internal_weight=325052 313598 11454 73972 24179 49793 25856 15890 5136 239626 81144 6318 2957 5570 19000 8289 7091 10031 6856 6999 8190 71113 31965 2179 3557 10320 1886 2298 2761 6365 2091 1027 2070 23937 8256 5241 5425 12001 1488 901 1671 1278 2566 3004 25600 7982 158482 66070 6512 5335 4941 659 4427 757 4553 1054 2150 729 810 569 2446 1064
internal_count=325052 313598 11454 73972 24179 49793 25856 15890 5136 239626 81144 6318 2957 5570 19000 8289 7091 10031 6856 6999 8190 71113 31965 2179 3557 10320 1886 2298 2761 6365 2091 1027 2070 23937 8256 5241 5425 12001 1488 901 1671 1278 2566 3004 25600 7982 158482 66070 6512 5335 4941 659 4427 757 4553 1054 2150 729 810 569 2446 1064
is_linear=0
shrinkage=0.05


Tree=10
num_leaves=63
num_cat=0
split_feature=2 3 2 6 1 1 6 6 3 7 3 6 6 1 1 1 6 4 6 6 4 6 1 1 6 1 6 1 9 4 1 3 6 1 6 4 1 6 9 6 4 4 1 6 4 4 1 1 4 1 6 1 6 19 1 4 1 4 6 1 6 6
split_gain=2.04508e+06 509479 313074 215667 128326 111808 158969 70634.8 68080.3 92134.8 65352.3 63296.2 53501.6 51412.4 45753.6 40433.4 40125 38713.7 37927.8 36378.1 41753.3 29621.1 30658.6 28797.2 31644.5 25435.2 25145.7 33094.6 22374.9 22059 25318.2 20323.5 20100.2 19571.1 20994.8 18387.3 22841.8 18340.2 18144.6 16565.8 16381.5 15666.7 13818.4 38644 13366.9 12846.7 12663.6 12592.9 12537 12408.3 12154 17601.3 12049.9 11409.1 10786.4 10534.6 10335.4 9915.65 13534.5 12130.6 9730.59 9723.25
threshold=620.99889993235161 646.7600000000001 1018.525626018118 236.74328148148149 294.52380952380958 373.70214285714297 347.08500000000009 350.51724137931041 346.52500000000003 162.87241365979961 4840.5000000000009 561.76800000000014 164.7042911877395 525.12642857142862 468.25000000000006 203.67988095238096 481.07724137931035 5.5000000000000009 123.18802018633541 180.30069581280793 5.5000000000000009 185.3412142857143 356.55214285714288 773.36928571428587 343.9401379310346 246.08083333333337 287.61516666666677 310.08928571428572 12.500000000000002 5.5000000000000009 215.87702380952388 2176.7650000000008 291.95543103448279 570.92071428571433 490.48883333333339 5.5000000000000009 160.45083333333335 145.22875478927207 18.500000000000004 399.25308333333334 6.5000000000000009 6.5000000000000009 249.66392857142858 249.45679310344829 6.5000000000000009 6.5000000000000009 673.76071428571436 249.66392857142858 6.5000000000000009 253.17428571428579 380.947 990.40988095238083 199.13206896551728 138.50000000000003 444.03440476190491 6.5000000000000009 714.90071428571434 4.5000000000000009 204.55300000000003 525.12642857142862 303.20639285714293 140.75795138888887
decision_type=2 2 2 2 2 2 2 2 2 2 2 2 2 2 2 2 2 2 2 2 2 2 2 2 2 2 2 2 2 2 2 2 2 2 2 2 2 2 2 2 2 2 2 2 2 2 2 2 2 2 2 2 2 2 2 2 2 2 2 2 2 2
left_child=1 8 7 4 12 26 14 31 -1 15 11 23 29 39 32 18 46 -6 35 20 -17 -19 55 24 -4 -14 27 -5 -12 -3 -31 57 41 -9 56 -10 -37 -22 -25 54 -27 -7 -11 48 -29 -16 -15 -21 -44 -39 -40 -52 -42 -30 -8 -23 -35 -2 -59 -60 -47 -32
right_child=2 3 10 5 17 6 13 33 9 42 28 -13 25 16 45 19 -18 21 -20 47 37 22 -24 38 -26 40 -28 44 53 30 61 -33 -34 34 -36 36 -38 49 50 -41 52 -43 43 -45 -46 60 -48 -49 -50 -51 51 -53 -54 -55 -56 -57 -58 58 59 -61 -62 -63
leaf_value=0.082111553507640017 -0.19526609649039345 -0.085098044432213776 -0.90791127477102429 0.058361825674204941 -0.16033090755905843 -0.14486181340879922 0.017879028589556811 -0.020517861599314818 0.013556521998839936 0.084285630622254096 0.077508516465463959 -0.20556728540906605 0.022318887160039609 -0.23347805729411772 -0.286441263419068 -0.0045673058877893384 -0.031112978086939663 -0.68894444558568579 0.043339867086890527 0.029239534715971474 -0.46154091817727361 -0.17844867543278686 -0.58003329815344207 -0.59308962681958843 -0.41534646858107555 -0.019468720220449029 0.083443094946222887 0.017513515559557571 -1.3258207831081454 -0.19525100019268571 -0.64401976160678398 -0.73449751149827547 -0.14464113236125259 -0.36124365496690902 -0.15491377701254683 -0.091169158679799495 -0.36214330763870034 -0.17342739973753107 -1.2171083879498941 0.075808435075957886 -0.33587528186861942 -0.40302833352698192 0.00035210831942375205 0.072759876698635706 -0.18283507593553439 -0.73856042658841181 -0.55853357566077089 -0.093941782403240651 -0.16304901751562245 -0.42147830583547291 -0.71110324029617267 -1.1415551341575181 -0.13650661006736564 -0.77715827617251765 -0.14458529004016837 -0.37070120231865622 -0.70382725379339106 -0.7691571256601728 -0.37378362174639695 -0.6827615139089821 -0.47192493822640985 -0.39188956553798648
leaf_weight=138700 267 1116 927 5689 1444 852 2634 790 2351 40378 31 355 4304 2768 550 2248 4160 1057 19317 4709 965 1023 1567 215 503 1739 14586 1152 1183 1564 558 1208 3726 628 1004 2951 1056 2952 848 8278 1195 1894 2103 14922 3002 540 336 3709 2657 608 414 557 2072 103 1669 2348 339 429 1224 429 934 1215
leaf_count=138700 267 1116 927 5689 1444 852 2634 790 2351 40378 31 355 4304 2768 550 2248 4160 1057 19317 4709 965 1023 1567 215 503 1739 14586 1152 1183 1564 558 1208 3726 628 1004 2951 1056 2952 848 8278 1195 1894 2103 14922 3002 540 336 3709 2657 608 414 557 2072 103 1669 2348 339 429 1224 429 934 1215
internal_value=2.83886e-10 0.0239685 -0.656232 -0.0907359 -0.225425 -0.0366202 -0.104191 -0.420544 0.0593775 0.0281347 -0.946161 -0.841423 -0.134989 -0.0267091 -0.285173 -0.0297804 -0.132622 -0.392741 0.00847533 -0.0944383 -0.180698 -0.448722 -0.397301 -0.906587 -0.734652 -0.0668108 0.0417711 -0.0199812 -1.24988 -0.277532 -0.341888 -0.567836 -0.220286 -0.230786 -0.315064 -0.0974508 -0.162581 -0.2682 -1.02747 0.0344426 -0.143442 -0.322927 0.0675412 0.0331898 -0.127274 -0.49266 -0.268664 -0.0250346 -0.0908573 -0.215791 -1.07881 -0.958026 -0.209431 -1.28188 -0.0451358 -0.312358 -0.481343 -0.482129 -0.518917 -0.453972 -0.569607 -0.47124
internal_weight=325052 313598 11454 73972 21202 52770 28341 6318 239626 100926 5136 3819 13763 19845 8496 40866 7264 7439 25675 15191 6773 5995 4938 3464 1430 9310 24429 9843 1317 4453 3337 3557 6472 2761 1971 6358 4007 4525 2034 12581 5006 2746 60060 19682 4154 2024 3104 8418 4760 3560 1819 971 3267 1286 4303 3371 967 2349 2082 1653 1474 1773
internal_count=325052 313598 11454 73972 21202 52770 28341 6318 239626 100926 5136 3819 13763 19845 8496 40866 7264 7439 25675 15191 6773 5995 4938 3464 1430 9310 24429 9843 1317 4453 3337 3557 6472 2761 1971 6358 4007 4525 2034 12581 5006 2746 60060 19682 4154 2024 3104 8418 4760 3560 1819 971 3267 1286 4303 3371 967 2349 2082 1653 1474 1773
is_linear=0
shrinkage=0.05


Tree=11
num_leaves=63
num_cat=0
split_feature=2 0 6 2 0 6 0 0 6 0 6 0 6 6 6 0 6 6 0 0 0 6 6 0 6 0 6 8 6 6 0 0 6 0 6 6 0 0 6 0 0 6 0 0 0 6 6 0 6 6 6 6 6 6 6 6 0 6 6 0 6 0
split_gain=1.84569e+06 442184 412543 282550 151398 231807 77903.4 76504 72984.2 66470.7 64660.9 60630 59108.3 58292.1 53317.3 51736.6 266118 49724.5 60903.7 44624.1 44555.3 37238.7 32697.7 51580 31753.6 25230.7 30517.5 23114.1 21996 21917.9 20504.8 19817.6 18625.5 18584 23297.4 18020.5 16479.2 15965.2 15850.2 15682.8 15403.8 15009.8 14432.1 14119.1 13813.5 13131.8 13053 80672.8 23333.6 12580.2 12380.7 12375.1 12179.9 10371.3 10279.6 9982.46 9848.9 33546.2 9763.61 9467.72 8744.3 8047.36
threshold=620.99889993235161 1602.135 215.9316666666667 1018.525626018118 2355.4250000000006 326.2669252873564 2033.0500000000002 5586.045000000001 169.46603846153849 3447.5500000000006 394.34833333333336 2892.0550000000007 364.80051948051954 260.71870370370374 449.51018181818188 1001.4100000000003 145.22875478927207 177.23999166666673 1280.7550000000006 1923.7350000000004 1217.1350000000004 266.06555555555559 490.48883333333339 7700.0350000000008 116.55037037037037 3369.2400000000002 252.42550000000003 8122.4750000000013 287.61516666666677 380.947 2892.0550000000007 2201.7550000000006 123.18802018633541 7700.0350000000008 380.947 185.3412142857143 4794.755000000001 4522.1750000000002 273.43186612576068 4794.755000000001 3984.630000000001 141.60933333333335 4132.3750000000009 2412.0050000000006 3637.4500000000012 658.44044047619059 111.54421404682274 739.35500000000013 91.476324786324795 194.64464878671777 616.04866666666692 490.48883333333339 658.44044047619059 212.4943903940887 303.20639285714293 658.44044047619059 577.32500000000016 80.810728571428584 544.41472988505768 1406.615 281.34625925925934 827.51500000000021
decision_type=2 2 2 2 2 2 2 2 2 2 2 2 2 2 2 2 2 2 2 2 2 2 2 2 2 2 2 2 2 2 2 2 2 2 2 2 2 2 2 2 2 2 2 2 2 2 2 2 2 2 2 2 2 2 2 2 2 2 2 2 2 2
left_child=1 15 6 10 13 11 8 12 41 29 25 21 40 19 42 46 20 18 -18 -4 24 -6 33 55 -17 26 31 45 -27 30 -7 -2 -22 34 -9 -8 -12 -30 -13 58 60 -3 -11 -37 -40 -25 47 56 -49 -10 -38 -14 -41 -33 -42 -24 -1 -58 -16 -20 -5 -50
right_child=3 2 4 7 5 9 35 22 49 14 36 38 51 -15 39 16 17 -19 59 -21 32 -23 23 27 -26 28 -28 -29 37 -31 -32 53 -34 -35 -36 43 50 -39 44 52 54 -43 -44 -45 -46 -47 -48 48 61 -51 -52 -53 -54 -55 -56 -57 57 -59 -60 -61 -62 -63
leaf_value=0.087663273503473998 -0.25739977821362969 -0.77588067532697202 0.035108931653848756 -0.79942294809854397 -0.36349019918598435 0.03065623115715034 -0.74389803754655937 -1.3725753755605177 -0.25687387704291081 -0.23401408727580053 -0.039381019724192445 -0.67470656868940349 -0.42308661120280466 0.083369591213272698 -0.053339730717861383 -0.36177898815765586 0.061518549965266837 0.085270873141231329 -0.074691181028326906 -0.1451373192093289 -0.59360618601215187 -0.13649654161978539 -0.5434450668643932 -1.0543321176653817 -0.084048033892291152 -0.96253035410637278 -0.20692422818494782 -1.4697450914968222 -0.45831895950851947 0.080232641457311529 -0.15584353864389033 -0.84493128716453048 -0.30573726752398045 -1.5184669210242736 -0.93607847737265626 -0.40397712813677694 -0.46202078654380341 -0.88049647150368537 -0.36385975561994416 -0.29107081953990688 -1.1671709340810776 -0.44750514548560949 -0.48254025510713172 -0.69082758190775095 -0.72587057371355579 -0.50385425817859297 0.09024503553993328 -0.37414461748074679 -0.00795641361792657 -0.12883054550912182 -0.10814583581444681 0.062620574584758351 0.028173305711928099 -0.52811532991027144 -0.84122767775666485 0.046115110191075427 -0.26310578102682841 0.064832806584724109 0.098738326950198976 -0.19641689986463579 -0.38609300717069772 -0.15800869710691254
leaf_weight=39983 389 429 7972 330 2922 4106 836 534 3524 2471 1094 835 542 26768 2692 1298 10377 54154 3241 6032 722 4734 294 420 4969 446 1053 277 983 10912 2299 484 2534 389 715 1772 609 290 1790 922 400 1843 765 566 309 146 90670 885 1686 4210 416 173 442 554 612 95 891 6250 1736 3150 209 1901
leaf_count=39983 389 429 7972 330 2922 4106 836 534 3524 2471 1094 835 542 26768 2692 1298 10377 54154 3241 6032 722 4734 294 420 4969 446 1053 277 983 10912 2299 484 2534 389 715 1772 609 290 1790 922 400 1843 765 566 309 146 90670 885 1686 4210 416 173 442 554 612 95 891 6250 1736 3150 209 1901
internal_value=4.41306e-10 0.0227701 -0.0701704 -0.62342 -0.026299 -0.0996257 -0.328828 -0.898853 -0.260364 -0.0202087 -0.399516 -0.297193 -0.681678 0.040127 -0.130205 0.0606985 0.0286507 0.0619744 -0.0132639 -0.0425293 -0.219526 -0.223131 -1.07032 -0.875725 -0.141571 -0.513147 -0.411106 -1.09549 -0.660361 0.0371363 -0.0362857 -0.561774 -0.369571 -1.21669 -1.1227 -0.544661 -0.174347 -0.554495 -0.490451 -0.0393811 -0.855063 -0.509509 -0.292766 -0.47342 -0.417152 -0.912336 0.0788202 0.0587431 -0.14421 -0.187174 -0.318399 -0.305566 -0.187621 -0.675841 -0.970059 -0.399465 0.0780031 0.0239151 0.00628256 -0.134687 -0.639152 -0.0874795
internal_weight=325052 313598 90887 11454 77707 36935 13180 5136 10006 26345 6318 10590 2266 40772 9028 222711 80445 70922 16768 14004 9523 7656 2870 1232 6267 4199 2480 843 1719 17317 6405 1427 3256 1638 1249 3174 2119 1273 2934 5792 1551 2272 3236 2338 2099 566 142266 51596 4472 7734 1025 715 1364 1038 1012 389 47124 7141 4428 6391 539 3587
internal_count=325052 313598 90887 11454 77707 36935 13180 5136 10006 26345 6318 10590 2266 40772 9028 222711 80445 70922 16768 14004 9523 7656 2870 1232 6267 4199 2480 843 1719 17317 6405 1427 3256 1638 1249 3174 2119 1273 2934 5792 1551 2272 3236 2338 2099 566 142266 51596 4472 7734 1025 715 1364 1038 1012 389 47124 7141 4428 6391 539 3587
is_linear=0
shrinkage=0.05


Tree=12
num_leaves=63
num_cat=0
split_feature=2 2 0 6 6 0 0 6 0 6 0 6 6 0 0 6 19 9 0 6 6 0 0 0 6 0 6 6 0 6 6 0 6 0 0 0 0 6 0 6 6 0 6 6 0 6 6 6 0 6 6 0 6 0 0 0 6 0 19 6 0 6
split_gain=1.66646e+06 502358 156330 255875 138771 124759 116442 82797.7 71396.1 70022.8 65030.1 119054 60994.2 58824.7 58496.3 56228.2 52933.9 39776.7 32115 25562 25465.8 27990.6 25298.8 24571.2 23520.5 132056 58743.6 22524.1 21837.7 29745.5 20086.1 26692.4 17688 22857.2 17330.2 17245.7 17177.4 31629.7 16522.9 16077.4 15985.1 15759 73946.9 15727.7 15481.8 15352.8 14899 13763.8 24049.6 13178.8 12452.5 11600 11206.6 11019.1 10876.1 10785.2 10640.8 10366.7 9755.85 9509.79 9324.67 9027.29
threshold=782.49523630069632 314.7656392003887 1386.2900000000002 203.44932183908051 310.43700123152718 5586.045000000001 2566.3600000000006 389.90156321839089 3537.9350000000009 215.9316666666667 2053.7350000000001 289.77977777777784 430.8067241379311 1810.0250000000003 1778.0850000000003 161.83166666666671 126.50000000000001 16.500000000000004 4304.9300000000012 269.70645238095238 243.55837962962966 3229.1250000000005 2470.9500000000003 2074.985000000001 163.77863076923077 1033.1350000000004 133.49618181818184 177.23999166666673 2844.2200000000003 385.51333333333338 236.74328148148149 1721.0450000000003 158.14587500000002 1289.8350000000005 1190.1000000000001 3447.5500000000006 7700.0350000000008 394.34833333333336 5122.8450000000012 326.2669252873564 616.04866666666692 768.57000000000005 107.37563858695653 112.57978333333334 4304.9300000000012 528.35983908045989 243.55837962962966 380.947 2844.2200000000003 90.293746153846158 166.60288461538465 1516.0300000000009 137.1226666666667 3537.9350000000009 2157.150000000001 4132.3750000000009 258.96896551724143 1471.3150000000003 153.50000000000003 528.35983908045989 2201.7550000000006 121.33301282051282
decision_type=2 2 2 2 2 2 2 2 2 2 2 2 2 2 2 2 2 2 2 2 2 2 2 2 2 2 2 2 2 2 2 2 2 2 2 2 2 2 2 2 2 2 2 2 2 2 2 2 2 2 2 2 2 2 2 2 2 2 2 2 2 2
left_child=1 2 24 14 6 7 9 18 47 13 30 22 44 32 15 52 17 -7 19 35 -8 -22 46 -11 25 41 43 -15 -13 -30 31 -5 33 -3 -28 -2 37 -19 45 -20 -40 -1 49 -27 -10 -14 -12 48 -6 -43 -16 -17 -4 -21 -52 -9 -25 -34 -18 -57 -29 -44
right_child=5 4 3 10 8 16 20 55 12 23 11 28 38 27 50 51 58 36 39 53 21 -23 -24 56 -26 26 34 60 29 -31 -32 -33 57 -35 -36 -37 -38 -39 40 -41 -42 42 61 -45 -46 -47 -48 -49 -50 -51 54 -53 -54 -55 -56 59 -58 -59 -60 -61 -62 -63
leaf_value=0.079191155053143558 -0.59710443184247353 -0.069284671476029652 -0.55129948530819695 0.06291767186434781 0.04941925135906259 -0.25678064301874198 -0.67075568721500545 0.076155786187614705 -0.31545699201389077 0.045982750661880512 -0.25702572833507431 0.06074716025539343 -0.12207728863484942 -0.65679547811090833 -0.66274148604044558 -0.033253566733685846 -0.73244447809474966 -1.2575431039187663 -1.0850711490426745 -0.19252932633677819 -0.31366819400434237 -0.64009369113610892 -0.36861464795120602 -0.2350809803575106 0.086127996027016582 -0.46185604177252221 0.027915628165225106 -0.2808132060448012 -0.20324976933596189 0.023920236107961651 0.085895717464404595 -0.096112387502326813 0.093803903494932547 -0.43310318261237435 -0.11064777319295271 -1.0131416675945124 -1.2826133658376284 -0.78274929138166571 -0.44031955871496581 -0.71631564815966087 -0.083320407839101121 -0.41660116929560903 -0.0043447399277793735 -0.21375732373073175 -0.61512779188585709 0.065838146171392997 -0.091724394724007119 0.068508078116501295 -0.17291602771950762 -0.14977595350859285 -0.32256104452172196 -0.14898664219569197 -0.30378997175140743 -0.51659616659583585 -0.61258505657705342 -0.375891704937108 -0.06084730792065475 -0.14498457569026077 -0.3325008664526703 0.035985750020607499 -0.50411985342934629 0.083303808871683788
leaf_weight=83307 709 754 582 7682 2927 141 1226 304 1929 2856 2180 14515 2480 978 416 3971 347 671 560 396 2380 907 1790 1827 77988 822 5154 1255 2120 4499 29020 4019 706 1010 4014 384 973 735 572 626 694 576 3602 2866 555 1935 3638 6193 2081 2354 2102 4761 2135 777 382 578 1684 1276 272 185 745 15929
leaf_count=83307 709 754 582 7682 2927 141 1226 304 1929 2856 2180 14515 2480 978 416 3971 347 671 560 396 2380 907 1790 1827 77988 822 5154 1255 2120 4499 29020 4019 706 1010 4014 384 973 735 572 626 694 576 3602 2866 555 1935 3638 6193 2081 2354 2102 4761 2135 777 382 578 1684 1276 272 185 745 15929
internal_value=5.19181e-10 0.0175853 0.0404252 -0.0167537 -0.15566 -0.72884 -0.257263 -0.560642 -0.0633002 -0.18176 0.0229531 -0.0346307 -0.175745 -0.294287 -0.208973 -0.158164 -0.970984 -1.07275 -0.67963 -0.569298 -0.476278 -0.403741 -0.204236 -0.0629234 0.0647995 0.0507773 -0.10054 -0.460153 0.0264253 -0.0488401 0.0635974 0.00829484 -0.162426 -0.277593 -0.0327512 -0.743269 -1.12111 -1.00934 -0.0853797 -0.890433 -0.244619 0.0691697 0.0320004 -0.269055 -0.382412 -0.039718 -0.153663 0.0186664 -0.0429689 -0.20223 -0.409563 -0.0963554 -0.356808 -0.407193 -0.367162 -0.175686 -0.151512 -0.0599267 -0.556702 -0.276026 -0.363995 0.0671392
internal_weight=325052 317394 280424 83812 36970 7658 17604 4519 19366 13091 69463 28742 8165 6724 14349 11449 3139 2520 3452 2266 4513 3287 7608 6367 196612 118624 12856 2978 21134 6619 40721 11701 3746 1764 9168 1093 2379 1406 5681 1186 1266 105768 22461 3688 2484 4415 5818 11201 5008 2930 2900 8732 2717 1173 2484 1067 3511 1982 619 763 2000 19531
internal_count=325052 317394 280424 83812 36970 7658 17604 4519 19366 13091 69463 28742 8165 6724 14349 11449 3139 2520 3452 2266 4513 3287 7608 6367 196612 118624 12856 2978 21134 6619 40721 11701 3746 1764 9168 1093 2379 1406 5681 1186 1266 105768 22461 3688 2484 4415 5818 11201 5008 2930 2900 8732 2717 1173 2484 1067 3511 1982 619 763 2000 19531
is_linear=0
shrinkage=0.05


Tree=13
num_leaves=63
num_cat=0
split_feature=2 0 6 2 0 6 0 6 0 6 6 0 6 0 0 6 6 0 0 6 0 6 6 8 0 6 0 6 0 6 6 6 0 6 6 6 6 6 0 0 0 6 0 0 0 1 0 6 6 0 6 6 0 0 6 6 0 6 6 0 6 0
split_gain=1.50509e+06 361847 342402 230264 131562 180752 77638.1 77376.2 64941 56098.1 53888.7 47659.7 44498.5 51547.8 42195.4 217531 44535.9 62171.5 42095.8 41553.2 40195.7 27818 26581.1 35231.2 25702.1 25529.3 19765.7 19747.4 18961.5 18715.5 17679.4 17618.8 16562.4 16481.1 15498.2 15480.2 15158.3 14541.9 14303.4 13377.6 13288.9 13056.2 13008.7 12263.1 12010.8 10677.5 10629 10190.4 10156.2 61020.6 20531.7 10135.4 9608.05 9565.59 8191.6 8128.73 8056.81 13626 8006.19 7671.83 7575.34 7520.21
threshold=620.99889993235161 1602.135 222.97568965517243 1018.525626018118 2470.9500000000003 332.06765915119371 2115.1000000000008 173.34579166666666 6328.755000000001 425.06833333333338 350.51724137931041 3447.5500000000006 275.36960648148153 2012.865 962.06000000000006 140.75795138888887 173.34579166666666 1253.6500000000003 1207.7550000000001 464.02947701149429 3048.8250000000003 108.45076388888891 490.48883333333339 8122.4750000000013 3105.7000000000003 275.36960648148153 4794.755000000001 217.06571428571431 3744.6000000000008 294.17899122807023 380.947 658.44044047619059 1825.9350000000002 490.48883333333339 146.18717948717952 240.9161047254151 186.37805555555559 337.93905172413798 2157.150000000001 4132.3750000000009 4304.9300000000012 120.36409226190477 4522.1750000000002 3853.2250000000008 2602.7950000000005 1225.7483333333332 2943.23 616.04866666666692 107.37563858695653 702.96500000000026 87.7477399380805 281.34625925925934 1406.615 5122.8450000000012 616.04866666666692 198.014375 7700.0350000000008 372.65267857142857 399.25308333333334 2640.3350000000005 125.08148351648357 1856.1000000000001
decision_type=2 2 2 2 2 2 2 2 2 2 2 2 2 2 2 2 2 2 2 2 2 2 2 2 2 2 2 2 2 2 2 2 2 2 2 2 2 2 2 2 2 2 2 2 2 2 2 2 2 2 2 2 2 2 2 2 2 2 2 2 2 2
left_child=1 14 6 10 12 20 7 34 9 26 24 30 13 -4 48 18 17 -17 21 40 25 -16 56 31 27 -6 29 38 -12 -5 46 45 55 53 -3 -26 -8 -28 -2 -37 58 -20 -21 51 -38 -24 -7 -44 49 -1 -51 -22 -19 -30 -11 -9 57 -10 -13 -29 -23 -36
right_child=3 2 4 8 5 11 36 32 22 54 28 19 -14 -15 15 16 -18 52 41 42 43 60 23 -25 35 -27 37 59 33 -31 -32 -33 -34 -35 61 39 44 -39 -40 -41 -42 -43 47 -45 -46 -47 -48 -49 -50 50 -52 -53 -54 -55 -56 -57 -58 -59 -60 -61 -62 -63
leaf_value=0.071403182776338295 -0.27290719531486002 -0.67542172827218705 0.043052821730818452 -0.82757542477967139 -0.35252709641142749 0.010942802259086089 -0.73376579448811574 -0.16975034051007989 -1.4670639997088044 -0.30403952098817433 0.03169367827536395 -0.29587631082292076 0.079002467732954093 -0.13710882577831018 -0.38898385148147852 0.058362296498463695 0.075925675870547493 -0.083344148265293419 -0.57075479089721182 0.032825633083929738 -0.61014194468388694 -0.16475879598005605 -0.59402955730720775 -1.3367595101952123 -1.0011993665263486 -0.14891909720238392 -1.1397505182569678 -0.060200779546371291 -0.32642432569315472 -0.44020443545786647 0.071054577866645249 -0.29846140988823455 -0.23239387325476743 -0.12710134411181642 -0.33082524048118134 -0.48758993489785241 -0.4009217559646599 -0.77372775993778209 -0.71079093839607987 -0.855420576851323 -0.45344802124159678 -0.30722065972976198 -0.22808255883166778 -0.83474336291468421 -0.70581192113459112 -1.0108490221400177 -0.14245168061235478 0.0093182934463970097 0.082148974180444811 -0.3583093745205575 -0.075160731597072483 -0.36283091989980232 -0.20446587223955928 -0.68303057631667785 0.17404022178878742 -0.049968293000614117 -1.3786250614568323 -0.95829296836430877 -0.13084057690525952 -0.33205397572669271 -0.046526657350907975 -0.53118061398317717
leaf_weight=42394 294 608 10485 601 2522 3048 581 2473 179 448 691 1277 26119 6390 911 11148 59596 3904 605 3422 592 2189 281 277 243 3952 440 432 809 648 9718 217 4111 1016 1567 1110 2034 708 510 318 630 2106 1107 215 384 339 1794 764 89263 787 3433 1380 2820 245 112 3315 389 497 1731 650 3555 668
leaf_count=42394 294 608 10485 601 2522 3048 581 2473 179 448 691 1277 26119 6390 911 11148 59596 3904 605 3422 592 2189 281 277 243 3952 440 432 809 648 9718 217 4111 1016 1567 1110 2034 708 510 318 630 2106 1107 215 384 339 1794 764 89263 787 3433 1380 2820 245 112 3315 389 497 1731 650 3555 668
internal_value=-2.44689e-11 0.020562 -0.0635127 -0.562966 -0.0190956 -0.0955993 -0.275556 -0.221684 -0.811613 -0.65899 -0.360838 -0.0236144 0.0381158 -0.0251684 0.0548724 0.027648 0.055165 -0.0140637 -0.199951 -0.114548 -0.290842 -0.132295 -1.01873 -0.847979 -0.489491 -0.228236 -0.764253 -0.36298 -0.195094 -0.626602 0.0321637 -0.68622 -0.155653 -0.270799 -0.451596 -0.63228 -0.504443 -0.914015 -0.550669 -0.569502 -0.244638 -0.366032 -0.0251349 -0.476169 -0.449341 -0.821936 -0.0458911 -0.131143 0.0722706 0.0533541 -0.127966 -0.437074 -0.134142 -0.409317 -0.208424 -0.101147 -1.19733 -1.09301 -0.200904 -0.223514 -0.0915841 -0.390708
internal_weight=325052 313598 90887 11454 75146 32152 15741 12742 5136 2957 6318 23491 42994 16875 222711 86834 77468 17872 9366 8931 8661 6655 2179 1114 3557 6474 2397 1886 2761 1249 14560 837 9899 2070 2843 1671 2999 1148 804 1428 3638 2711 5293 2187 2418 620 4842 1871 135877 46614 4220 1972 6724 1054 560 5788 1065 676 3008 1082 5744 2235
internal_count=325052 313598 90887 11454 75146 32152 15741 12742 5136 2957 6318 23491 42994 16875 222711 86834 77468 17872 9366 8931 8661 6655 2179 1114 3557 6474 2397 1886 2761 1249 14560 837 9899 2070 2843 1671 2999 1148 804 1428 3638 2711 5293 2187 2418 620 4842 1871 135877 46614 4220 1972 6724 1054 560 5788 1065 676 3008 1082 5744 2235
is_linear=0
shrinkage=0.05


Tree=14
num_leaves=63
num_cat=0
split_feature=2 3 2 6 0 0 6 0 6 6 6 0 6 6 0 0 0 0 0 6 6 6 8 0 6 0 6 0 6 6 0 6 6 0 6 0 0 0 6 6 6 0 6 6 0 0 6 0 6 0 6 0 6 1 0 0 0 6 0 6 6 0
split_gain=1.35834e+06 340407 207813 148487 153767 98132.1 125524 58609.3 55729.6 50628.5 49016.7 44706.4 137559 40523.2 45373.6 39918 38708.1 37370.8 30034.2 27765.5 27154.5 23989.4 31796.1 23007.9 73782.5 22090 20333.9 18224.7 18054.8 17141.1 16489.6 16319.3 16307.7 33589.4 15901 15036 14705.3 14537 14523.9 14310.3 13218.9 12846.6 12511.4 12230.7 15155.6 12009.9 11985 11979.5 10605.9 68724 18587 10196.6 36307 9636.46 9613.1 9516.04 9164.91 9054.88 16801.4 8507.73 8500.18 7993.8
threshold=620.99889993235161 613.49000000000012 1018.525626018118 242.15884259259261 1840.8500000000004 2566.3600000000006 353.7834482758621 6328.755000000001 168.54044642857144 425.06833333333338 376.86483333333337 1074.0100000000004 159.96916264090177 187.40996296296296 2275.7350000000006 1326.8950000000004 3744.6000000000008 3167.5400000000004 1356.6200000000003 513.45439583333348 125.08148351648357 490.48883333333339 8122.4750000000013 1493.2150000000001 213.62329670329672 3105.7000000000003 224.21779503105594 4522.1750000000002 298.71639285714292 260.71870370370374 1551.8749999999998 281.34625925925934 296.35579166666673 2115.1000000000008 658.44044047619059 1763.2650000000006 3984.630000000001 4132.3750000000009 337.93905172413798 130.70065217391308 201.25296470588242 2157.150000000001 125.08148351648357 430.8067241379311 3105.7000000000003 2715.8000000000006 513.45439583333348 3853.2250000000008 117.5271794871795 790.24500000000035 95.163383838383865 622.2800000000002 86.449924242424245 1225.7483333333332 4794.755000000001 2249.6800000000003 5122.8450000000012 247.91968965517245 1840.8500000000004 154.39875000000004 305.67516666666671 5586.045000000001
decision_type=2 2 2 2 2 2 2 2 2 2 2 2 2 2 2 2 2 2 2 2 2 2 2 2 2 2 2 2 2 2 2 2 2 2 2 2 2 2 2 2 2 2 2 2 2 2 2 2 2 2 2 2 2 2 2 2 2 2 2 2 2 2
left_child=1 11 10 4 8 32 17 9 15 27 25 48 18 55 -15 42 43 28 20 54 -13 -9 34 -14 35 26 41 31 -7 -27 -10 -4 33 -5 53 -25 -12 -31 -29 -17 -32 -2 -3 44 -8 -16 61 60 49 51 -51 -1 -53 -23 -18 59 -21 58 -26 -6 -19 -38
right_child=2 3 7 5 13 6 16 21 30 -11 36 12 23 14 45 39 19 47 -20 56 -22 22 -24 24 57 29 -28 38 -30 37 40 -33 -34 -35 -36 -37 46 -39 -40 -41 -42 -43 -44 -45 -46 -47 -48 -49 -50 50 -52 52 -54 -55 -56 -57 -58 -59 -60 -61 -62 -63
leaf_value=0.074521821130342378 -0.24535854950777805 -0.21494141390260599 -0.78582348565617677 0.067433349290474273 -0.74929266505771219 -0.28598640015286009 0.044716845850939595 -1.1374677515925375 0.063917968394118313 -0.19800239398742894 0.026836872389840928 -0.32115786754026376 0.069419076103827179 -0.18781541350602479 -0.38381984639580202 -0.58952965463910789 -0.19202122346150144 -0.5073821000115033 -0.33169619097113007 0.041933983956810687 -0.069678021821289779 -0.56432807714648525 -1.2699215222782176 -0.098007249872631111 0.049800369596326888 -0.84703355449534912 -0.18155061524007132 -1.0336690336057586 -0.11182223907498606 -0.39347007705754528 -0.16036703511685069 -0.38300419591682155 0.077289464642130948 -0.10493581070310885 -0.28353834075312462 -0.2785481154686294 -0.31367823933636335 -0.72957651283567326 -0.70553009166454617 -0.2755561582659361 0.0031679075173801276 -0.64247789116229048 -0.00015020700562845418 0.078743563735069522 -0.11222644991270714 -0.63646429280934247 -0.11570125592649372 -0.6813512658690386 0.076815224664163795 -0.34594032329025004 -0.087123260718356646 -0.24881334676919753 0.057223171237795384 -0.9603065707163122 -0.46207506589531583 -0.78617485046386726 -0.15807603918555238 0.068571114520509513 -0.1284596624692208 -0.43104347881816685 -0.29002213379163655 -0.7383089199998325
leaf_weight=46342 311 978 459 7209 252 2581 3825 1065 5010 560 712 1295 39723 5176 2139 420 2828 722 1974 2171 6274 281 277 4601 4740 431 1049 584 3514 1110 2091 556 15938 4649 217 1539 665 453 798 2670 3021 590 2210 6565 2573 603 864 374 93169 846 3853 1134 6666 339 373 315 778 18171 1833 1260 1193 133
leaf_count=46342 311 978 459 7209 252 2581 3825 1065 5010 560 712 1295 39723 5176 2139 420 2828 722 1974 2171 6274 281 277 4601 4740 431 1049 584 3514 1110 2091 556 15938 4649 217 1539 665 453 798 2670 3021 590 2210 6565 2573 603 864 374 93169 846 3853 1134 6666 339 373 315 778 18171 1833 1260 1193 133
internal_value=-9.54596e-12 0.0195339 -0.534818 -0.0684215 -0.166606 -0.0219957 -0.088967 -0.771032 -0.0731348 -0.62604 -0.342796 0.0503873 0.0201707 -0.323909 -0.274932 -0.190169 -0.0182127 -0.250265 -0.158004 -0.121518 -0.112704 -0.967792 -0.80558 0.0442521 0.0118824 -0.450846 -0.331187 -0.72604 -0.185574 -0.567864 -0.000546157 -0.565166 0.0442553 -0.000145013 -0.651909 -0.14326 -0.163289 -0.490883 -0.844194 -0.318232 -0.063724 -0.505403 -0.0660429 0.030798 -0.018399 -0.43938 -0.244739 -0.422521 0.0663195 0.0497006 -0.13372 0.0656198 0.0127302 -0.780839 -0.22349 -0.536169 -0.0108323 0.0503796 8.93337e-05 -0.484085 -0.371972 -0.38445
internal_weight=325052 313598 11454 81438 26145 55293 27497 5136 16400 2957 6318 232160 80150 9745 7918 6278 19113 8384 9543 6150 7569 2179 1114 70607 30884 3944 1950 2397 6095 1994 10122 1015 27796 11858 837 6140 2374 1563 1382 3090 5112 901 3188 12963 6398 2742 1662 2289 152010 58841 4699 54142 7800 620 3201 1827 2949 24744 6573 1512 1915 798
internal_count=325052 313598 11454 81438 26145 55293 27497 5136 16400 2957 6318 232160 80150 9745 7918 6278 19113 8384 9543 6150 7569 2179 1114 70607 30884 3944 1950 2397 6095 1994 10122 1015 27796 11858 837 6140 2374 1563 1382 3090 5112 901 3188 12963 6398 2742 1662 2289 152010 58841 4699 54142 7800 620 3201 1827 2949 24744 6573 1512 1915 798
is_linear=0
shrinkage=0.05


Tree=15
num_leaves=63
num_cat=0
split_feature=3 3 3 6 0 0 6 6 6 0 6 0 19 0 0 0 6 6 6 0 0 6 6 0 0 6 0 0 0 6 0 6 0 6 6 0 0 6 8 6 6 6 0 6 6 0 6 6 6 0 6 0 0 0 6 0 0 6 6 6 0 6
split_gain=1.22367e+06 308195 178635 145427 143986 86708.1 125137 76809.9 48162.8 40513.9 129138 40491.9 37512.4 34840.1 32958 32887.7 32837.9 32644.7 32096.5 34778.8 30983.4 40630.6 26723.8 24304.5 21810 19020.5 53849.4 18116.3 15392.4 15346 15303.5 15219.4 29247.4 14430.5 13536.3 13135.4 12926.6 12674 15359 11749.5 11525.6 11491.1 11488.2 23279.1 10747.6 10474.3 10808 10471.9 10181.6 61954.6 20356.7 10014.2 9873.8 9781.16 43239.9 9582.22 8671.91 8069.16 7792.13 7680.37 7591.28 7582
threshold=1767.0250000000003 613.49000000000012 3189.5150000000008 236.74328148148149 1888.9649999999999 2501.8000000000002 337.93905172413798 403.8199444444445 166.60288461538465 1122.2200000000005 165.6713186813187 1356.6200000000003 24.500000000000004 4522.1750000000002 3369.2400000000002 3167.5400000000004 449.51018181818188 269.70645238095238 190.49345238095239 2355.4250000000006 7700.0350000000008 449.51018181818188 136.21655723905727 1376.2850000000003 1577.1300000000003 206.85089285714287 1471.3150000000003 5122.8450000000012 3537.9350000000009 279.19637931034487 5586.045000000001 285.50258045977017 2033.0500000000002 738.37174074074085 335.10027380952386 3537.9350000000009 1735.4450000000004 501.27353448275875 8122.4750000000013 143.4236437246964 119.42388888888892 198.014375 1810.0250000000003 262.50578817733998 380.947 4304.9300000000012 585.29253703703705 353.7834482758621 127.96395748987858 857.35000000000002 99.761500000000026 3984.630000000001 4132.3750000000009 622.2800000000002 87.7477399380805 2275.7350000000006 2844.2200000000003 616.04866666666692 161.83166666666671 74.442894736842121 1356.6200000000003 213.62329670329672
decision_type=2 2 2 2 2 2 2 2 2 2 2 2 2 2 2 2 2 2 2 2 2 2 2 2 2 2 2 2 2 2 2 2 2 2 2 2 2 2 2 2 2 2 2 2 2 2 2 2 2 2 2 2 2 2 2 2 2 2 2 2 2 2
left_child=1 9 7 4 8 31 15 13 11 48 22 40 -4 17 44 29 52 35 55 -20 21 30 60 -24 -10 26 -12 -9 -19 -7 34 32 -5 -29 -14 61 -28 -22 -39 -13 -3 -26 -27 -44 -8 -18 -47 -32 49 53 -51 -17 -16 -1 59 58 -21 -23 -6 -55 -11 -2
right_child=2 3 12 5 18 6 14 27 24 10 25 39 20 -15 16 51 45 28 19 56 37 57 23 -25 41 42 36 33 -30 -31 47 -33 -34 -35 -36 -37 -38 38 -40 -41 -42 -43 43 -45 -46 46 -48 -49 -50 50 -52 -53 -54 54 -56 -57 -58 -59 -60 -61 -62 -63
leaf_value=0.071534853941241955 -0.68057220414912067 -0.24961097608057067 -5.7951142998779716e-05 0.068903728612907458 -0.66829627995991581 -0.30623566414210474 -0.034651646758153389 -0.050040265208363688 0.052575837538466591 -0.26069339764832639 0.055525844998209284 -0.47246631512312387 -0.84293216225740153 -0.80472524227823161 -0.17000195340144805 -0.40382867770903003 0.037771333585129838 -0.16595584248596212 -0.20796280041211901 -0.41764616851812708 -1.244843790113783 -0.43297559697463922 -0.051118436714631212 -0.25592292306617331 -0.17955047806476671 0.073590582969749949 -0.090572813371565822 -0.40352265029870554 -0.42435670197241432 -0.14021730637011356 -1.2618003104377715 0.073467522441021824 -0.09612290137748343 0.034944404356823375 -0.47512172242122541 -0.90473089731401868 -0.27057198796138943 -0.74900540893589307 -1.2114592480043644 -0.25862296955730468 -0.026301514941037985 -0.03017194732548685 -0.094045944646855284 0.06083657337416476 0.068461365993679024 -0.1952094173571095 0.029751210638187732 -0.87353905425393341 0.07351120904097648 -0.34647838784597124 -0.072468800938010933 -0.81898841351270679 -0.38512233564936382 -0.47279588913216308 0.054807484963315702 -0.75527885053410881 -0.70816390677461405 0.055299283375791777 -0.40115793129345323 -0.17825558827165947 -0.49171708184494123 -0.44220026492814113
leaf_weight=52358 543 743 147 6194 362 2097 3619 1634 5375 1802 11939 984 608 734 2729 1576 3521 1043 4377 1573 417 474 5160 2014 2146 34833 3749 887 1288 4140 233 16468 4739 238 425 288 1359 532 271 1850 2599 3218 3393 8513 8376 1280 916 682 87272 787 4886 160 663 272 12192 358 307 103 1110 1188 443 865
leaf_count=52358 543 743 147 6194 362 2097 3619 1634 5375 1802 11939 984 608 734 2729 1576 3521 1043 4377 1573 417 474 5160 2014 2146 34833 3749 887 1288 4140 233 16468 4739 238 425 288 1359 532 271 1850 2599 3218 3393 8513 8376 1280 916 682 87272 787 4886 160 663 272 12192 358 307 103 1110 1188 443 865
internal_value=6.19254e-10 0.018505 -0.508581 -0.0651583 -0.165555 -0.020714 -0.0808548 -0.366266 -0.0825889 0.0478679 0.0170896 -0.193844 -0.783557 -0.487912 -0.0170994 -0.249611 -0.0888017 -0.430166 -0.339089 -0.285219 -0.814311 -0.714343 -0.155728 -0.108614 -0.0186063 0.0426088 -0.00260115 -0.156351 -0.308736 -0.196036 -0.823502 0.0431052 -0.00262844 -0.310763 -0.691606 -0.597062 -0.138462 -1.02121 -0.905076 -0.332872 -0.0759481 -0.0899345 0.0590981 0.0166978 0.0373512 -0.0156766 -0.101373 -0.972408 0.0620426 0.0480798 -0.110481 -0.442092 -0.212049 0.0617068 0.0240144 -0.523278 -0.465087 -0.345814 -0.466854 -0.233129 -0.306281 -0.534129
internal_weight=325052 313640 11412 81480 25002 56478 29077 7520 16915 232160 73205 6176 3892 4761 21104 7973 9109 4027 8087 6257 3745 2525 9419 7174 10739 63786 17047 2759 2331 6237 1948 27401 10933 1125 1033 1696 5108 1220 803 2834 3342 5364 46739 11906 11995 5717 2196 915 158955 71683 5673 1736 3392 66010 13652 1830 1880 577 1472 1460 2245 1408
internal_count=325052 313640 11412 81480 25002 56478 29077 7520 16915 232160 73205 6176 3892 4761 21104 7973 9109 4027 8087 6257 3745 2525 9419 7174 10739 63786 17047 2759 2331 6237 1948 27401 10933 1125 1033 1696 5108 1220 803 2834 3342 5364 46739 11906 11995 5717 2196 915 158955 71683 5673 1736 3392 66010 13652 1830 1880 577 1472 1460 2245 1408
is_linear=0
shrinkage=0.05


Tree=16
num_leaves=63
num_cat=0
split_feature=2 3 6 2 3 8 3 3 6 9 6 4 6 8 6 3 3 6 6 8 6 6 8 3 4 6 7 4 6 4 3 8 4 9 4 4 2 4 4 3 6 2 6 7 6 2 4 2 8 6 4 6 3 6 3 3 7 5 4 4 8 2
split_gain=1.10835e+06 352641 128215 82947.7 75589.7 80430.1 42231.3 41808.6 41602.9 35953.5 25763.1 23199.2 27508.8 18445.2 14840.1 13898.2 12997 11869.4 11723.1 11557.2 11706.9 11039.8 10105.6 24220.4 11833.3 10573.1 10043.6 9986.28 8448.32 8355.67 7904.46 7778.78 7645.91 7390.15 6923.42 6168.04 6007 6002.82 5918.92 5841.87 5792.24 5444.88 5437.99 5317.18 5119.33 4775.94 4772.26 4714.25 4383.46 3930.08 3865.45 3850.55 3726.03 3604.86 3514.71 3435.44 3425.19 3334.75 3242.03 3235.34 4281.6 3220.96
threshold=782.49523630069632 838.34500000000014 262.50578817733998 1478.1085937033033 434.99500000000006 836.2850000000002 1149.5150000000001 1262.5850000000003 436.43287356321844 18.500000000000004 419.49509920634927 6.5000000000000009 182.2746518518519 1264.0700000000002 139.75445652173914 2399.2200000000007 602.70500000000015 182.2746518518519 193.60213913043484 8122.4750000000013 528.35983908045989 300.97200000000004 448.36000000000007 264.68000000000006 5.5000000000000009 109.49175555555554 947.05465504920051 6.5000000000000009 136.21655723905727 6.5000000000000009 576.84000000000015 2709.0350000000003 6.5000000000000009 9.5000000000000018 6.5000000000000009 6.5000000000000009 588.29870450190163 5.5000000000000009 5.5000000000000009 1593.0300000000002 212.4943903940887 1211.8739232899973 335.10027380952386 267.91163844937836 229.19895833333334 1887.4818545290193 5.5000000000000009 1018.525626018118 1681.3750000000002 76.198117647058851 6.5000000000000009 193.60213913043484 1767.0250000000003 464.02947701149429 613.49000000000012 587.00500000000011 465.82003101476346 4465.3200000000006 4.5000000000000009 5.5000000000000009 264.22500000000008 1887.4818545290193
decision_type=2 2 2 2 2 2 2 2 2 2 2 2 2 2 2 2 2 2 2 2 2 2 2 2 2 2 2 2 2 2 2 2 2 2 2 2 2 2 2 2 2 2 2 2 2 2 2 2 2 2 2 2 2 2 2 2 2 2 2 2 2 2
left_child=1 4 6 8 22 11 17 13 15 33 32 14 28 35 37 40 -14 38 48 20 34 -17 23 59 -25 49 47 -19 -13 -20 -30 52 -9 -5 -11 -4 -31 -6 -3 -34 58 -23 -37 -7 -18 53 -16 -10 -8 -26 -27 54 -12 -36 -48 -39 -41 -42 -2 -1 -61 -22
right_child=3 2 7 9 5 43 18 10 26 19 31 12 16 -15 46 21 44 27 29 -21 61 41 -24 24 25 50 -28 -29 30 36 -32 -33 39 -35 45 42 -38 55 -40 56 57 -43 -44 -45 -46 -47 51 -49 -50 -51 -52 -53 -54 -55 -56 -57 -58 -59 -60 60 -62 -63
leaf_value=0.070368564031018085 -0.34665294936192886 -0.13368904486051611 0.015867913694135857 0.17923669045971288 -0.027130096411608951 0.03028335934454271 -0.43346913332724846 -0.088150835088385948 -0.16840096822777681 -0.79094743486520402 -0.053569532322752515 -0.24682234558196972 -0.0031400662303270629 0.038323389806723202 0.058389695382739186 -0.75547268620742269 -0.12665152484715952 -0.04779405809189706 -0.20654150107442831 -1.1869291201338068 -0.43913375607404598 -0.4746135335405936 0.06548489707876036 0.049198087304296145 -0.27830252755478913 0.028636023822555746 0.12586337150892596 -0.18011553573880201 -0.079845769804504724 -0.3192662053545412 -0.18941393232353607 0.094522926832111609 -0.18755997008021189 -0.43390692906917905 -0.97193518987153471 -0.12178610948884019 -0.51935447412591818 -0.097460906883407389 -0.305575373277858 -0.32464626248800443 -0.035819658989969055 -0.65353590868197498 -0.042003957938870955 0.065644016689800619 -0.052622679104123993 -1.1406289406716004 -0.0023115841355740665 -0.38948950104696201 -0.68603541437460458 -0.085136164806878578 -0.027856938507492546 0.028544528544192323 -0.15136849557241683 -0.65369174065334468 -0.088815853364340669 -0.22902436559576347 -0.1260701209165892 -0.38146286205370045 -0.75311093737439416 0.010091968225870166 0.060869904237891993 -0.72263344421123088
leaf_weight=32283 70 671 2248 62 2668 18968 1391 1094 494 701 3579 1691 10996 9145 5289 930 3920 2135 1410 286 163 1108 102094 8060 286 5391 185 4293 4259 1756 2683 732 2752 237 433 3811 477 1681 1975 1746 76 690 4859 24188 5777 363 3743 471 196 3320 6908 6023 1338 112 1711 704 248 853 164 6159 12736 260
leaf_count=32283 70 671 2248 62 2668 18968 1391 1094 494 701 3579 1691 10996 9145 5289 930 3920 2135 1410 286 163 1108 102094 8060 286 5391 185 4293 4259 1756 2683 732 2752 237 433 3811 477 1681 1975 1746 76 690 4859 24188 5777 363 3743 471 196 3320 6908 6023 1338 112 1711 704 248 853 164 6159 12736 260
internal_value=2.41615e-10 0.0143413 -0.113908 -0.594392 0.0359994 -0.000166974 -0.23808 -0.0576144 -0.475827 -0.822779 -0.133673 -0.042584 -0.0716307 -0.01406 -0.00354358 -0.553916 -0.040352 -0.172856 -0.351244 -0.88934 -0.847454 -0.615616 0.0552421 0.0413257 -0.000157268 -0.0251685 -0.211613 -0.136166 -0.146605 -0.301836 -0.122193 -0.0575439 -0.207312 -0.306767 -0.908989 -0.0579367 -0.362008 -0.0786559 -0.261987 -0.234779 -0.409188 -0.543277 -0.0770731 0.0501022 -0.0825487 -1.00012 0.019094 -0.276311 -0.464662 -0.100457 -0.00309447 0.000985232 -0.0801823 -0.906535 -0.0294492 -0.136296 -0.299949 -0.353186 -0.631521 0.0607508 0.0443184 -0.613389
internal_weight=325052 317394 45856 7658 271538 94301 14304 31552 5041 2617 11489 51145 29326 20063 21819 3891 20693 9074 5230 2318 2032 2728 177237 75143 23965 15905 1150 6428 8633 3643 6942 5649 5840 299 1609 10918 2233 5053 2646 4746 1163 1798 8670 43156 9697 908 16766 965 1587 3606 12299 11477 4917 545 5454 2385 1994 929 234 51178 18895 423
